#include "hls_stream.h"

struct AXIS_IO{
	float data;
	int last;
};


#define INPUT_SIZE 60
#define HIDDEN_SIZE 100
#define NUM_CLASSES 5

typedef hls::stream<AXIS_IO> stream_io;

const float l1_weights[HIDDEN_SIZE][INPUT_SIZE] = {{-0.026330227188981786, -0.2159111344177753, -0.12534991091470024, -0.26492062540228517, -0.08344452866432218, -0.03550580980905148, 0.039890496351951896, -0.1825289406012316, -0.16692174841957808, -0.07891908730932973, 0.01781050171509763, -0.15187934834565944, 0.11654235086613295, -0.1957737381090396, -0.3257934745895183, 0.15544914915429997, 0.012716013033987419, 0.17795998850364708, 0.009448367691276875, 0.06528870396614189, -0.009007053464311736, 0.230812214160286, 0.03141094795977072, 0.20236064852077978, -0.034137558432138546, 0.2969951191330387, 0.09099638817104358, 0.10033696132693966, -0.006360481340651892, 0.11470093748537866, 0.021181746677221103, 0.06586472890521883, 0.09305850705049312, 0.05442965670733315, -0.030262155205615284, 0.11834959773259789, 0.022480492203963996, 0.057299761026952764, -0.08819703965047267, -0.04957250193998528, -0.03972138159803809, 0.0811847534724389, 0.14566264911681043, -0.19203446077837263, -0.08746296743011614, -0.053571508866103824, -0.05879866003814487, 0.05807686502010688, -0.109133180587493, -0.24202712093656714, -0.06710444044454827, -0.10141943602091823, -0.07765797178946422, 0.04152139677168855, -0.1532686487546683, -0.030446408475571597, -0.13523363396058985, 0.016904690673613526, -0.005548193923848784, 0.16077154513339015},
{0.15372646218104657, 0.07020476941672858, -0.05905439904156881, 0.0010497003383375236, 0.20830110527766738, -0.018563095266900052, 0.04059182097279629, -0.046860360459748084, -0.111861560874223, -0.2448076115849033, 0.18490855384526284, 0.05595764232500763, -0.11916426835249919, 0.23325077360012872, -0.053388469730328396, -0.10083754634812164, -0.11264051489388789, -0.11871035249021272, 0.11488216336437922, -0.1763154108348314, -0.0836939232482695, -0.027498407764438345, -0.1509863385005923, -0.04844867912864405, -0.19548110792133672, 0.029011980811189397, -0.1098612483348033, 0.17876465493448454, 0.09462945640148676, 0.02608179938384897, 0.06350165326718137, -0.03658457622949784, -0.026953727622333206, 0.1191418535687541, -0.2665990701651012, -0.003396509193052531, 0.1023198216379797, 0.11196439790747964, 0.10960646684855241, -0.06633643667190414, 0.035930074357199915, -0.11726925781196926, 0.16423329124058328, 0.08273633607227558, -0.2000115423652024, -0.0656783517005039, 0.16200806493830525, -0.12361773678826363, -0.22010806175054715, 0.20869268814097242, 0.1310663760349951, 0.21675869768006745, 0.18912945136109371, -0.2044082214183091, 0.16208716864480666, 0.07403774661064326, -0.17294151571504976, -0.07732212081786369, -0.3557374220748318, 0.07401569480600748},
{0.16151162952271952, -0.16632441588944527, -0.12216714652407147, 0.05532073228216943, 0.09057040615226404, -0.03626063565864816, -0.02817441715020976, -0.21573147764282422, 0.04616184614213092, -0.0534349566102676, -0.039063825119885126, 0.12946991194040153, -0.15700305086727018, -0.20411208421190785, -0.10612075708509096, -0.13804998935781065, -0.18750300598790437, -0.014555584231537532, -0.039020625619118086, 0.17567896661757137, -0.050585234389159586, -0.18013294710964237, -0.11638482100312503, 0.028593060326468887, -0.23128429997100658, 0.24437386554897908, -0.22170554244494559, -0.12006819145082714, 0.08651600130840043, -0.08977631856042265, -0.2711814008609762, 0.3764615854250676, -0.21615168597006656, 0.037998344046507655, 0.23319026009239802, 0.07679904232448906, -0.004927066423077232, -0.006069738793334141, 0.009613544897910161, 0.04029388271276918, 0.10170721471691435, -0.06749790563654681, -0.02970803531658506, 0.07389164638537825, -0.09917565216838893, -0.017924984140714362, 0.17399935633370475, 0.06080719486844453, 0.29281376827876254, -0.39534837750945206, 0.08194267618649417, -0.06156773233097684, 0.08821000522665286, 0.10155654303791471, 0.15688159125470227, -0.3654224289933571, -0.20504941321022488, 0.042178624286441334, -0.1322563262261592, -0.05690836259337272},
{0.09309158187451813, 0.030454434071777312, 0.03584038966120453, -0.03235984722126041, 0.1917613192200784, 0.05858136376705761, -0.054470070182918696, -0.3038277917438146, -0.05032779289388404, 0.0038319529828748666, 0.06628496335723211, 0.10529027805862708, -0.03622561151667626, 0.13480749036555448, 0.09744556936187437, -0.08725557576320178, -0.16825235177280382, -0.01075154874622299, -0.0331407026645306, -0.1619306120936013, -0.08696419334763379, 0.1723275939627463, -0.29216943747411334, -0.07109279321868496, -0.041401344676140726, 0.24990693512839918, -0.05240251876581795, -0.05869255975975038, 0.19028865903621736, -0.053158665122373557, 0.06658054303407088, -0.14049394057656567, 0.07385430290385205, -0.010694874700134529, -0.010509614588035555, -0.05940537872480091, -0.21696737344252487, 0.1190000905372732, 0.10617407877613595, -0.020921893185248862, -0.055242314438549045, -0.1009844580135062, 0.14259053523223064, 0.0830854848307564, -0.10186218964637422, 0.058279362673582844, 0.004556831420124885, -0.011241604950542603, -0.0225672118211018, 0.049034779732398615, -0.09535747906259798, 0.05758470415136024, 0.02237404080025878, 0.10649004770733761, -0.002809253010655302, 0.04527287600442404, 0.04812926908801021, -0.012158224385020443, -0.05655167256162214, -0.18972149119409354},
{-0.16987608282946604, 0.0804758832538251, -0.07284425026324674, 0.10812974154901007, -0.050044801752772074, -0.05359936763156083, -0.18230108262553585, -0.02039166866964617, -0.046426395087665606, 0.0327378879853904, 0.05628940021928975, 0.14982446563289453, -0.06257307613992454, 0.07159593597321917, 0.010068783813903573, 0.02806138274666181, -0.12379335812296711, 0.0037861814758585357, -0.14103426550444728, -0.029288507164799662, -0.08654187197477409, 0.18216821142467637, 0.05283609704239682, 0.09169743464910413, -0.07614977772419983, -0.06696272873233, -0.18353064685511455, 0.14189082128152297, 0.08559949059918956, -0.06499565616052685, -0.08595796884140938, -0.14486329877588397, -0.02353403493304147, -0.05965904000110531, 0.055306253897188025, 0.13624614279714112, -0.11101879133739465, 0.04854539782306908, -0.11585688386355139, 0.09140538864933731, -0.06188305734424514, -0.07981561740423611, -0.19030406025662888, -0.13040119942352335, 0.22848343451636122, 0.006326504614482123, 0.05343424908713093, -0.06020993278548624, 0.022602592686409448, 0.10272596696617646, 0.16003427784544527, 0.03201941394238243, 0.1359604653732997, -0.09067134663778055, -0.10116449168748884, 0.1422695687572667, -0.1985917650072585, 0.12554225443326217, 0.05962060874009127, -0.2158341251088215},
{-0.188602002438212, 0.10726536560036933, -0.24835324117404406, 0.08575331312002875, 0.021605745551857427, -0.20684528678909578, -0.04707018555910989, 0.24101394419986558, 0.02913958661299134, 0.0760153566655125, 0.03993233086043712, -0.22621905522469027, 0.06382297821492572, 0.05316951485980025, -0.06798003578533073, -0.06998833149384619, 0.015336915728073055, -0.22968955986952022, 0.01766069151395137, -0.22225196010438836, 0.0989066962377827, 0.04049004404533494, 0.09239429366097066, -0.11039448498149522, -0.04962369957536597, -0.1547865993447047, 0.02477089922667844, 0.21811642355329283, 0.04393143988130436, -0.15248842630379894, 0.08711209995327625, -0.0440121195341665, 0.1770411330319283, 0.029999732482353932, 0.1871811509530334, -0.06097830731811925, -0.06094309735388494, 0.07683504418462232, 0.17860706033794818, 0.05075591441465435, -0.007401861204146958, 0.0024201375601954427, 0.07120485116152002, -0.164875926915764, 0.07497294957012816, -0.06570574732063729, 0.1802243370474767, -0.04364917899052855, 0.08958926612217886, -0.15557953297382177, -0.14291210650245567, -0.08699364008846679, -0.13676141231387717, 0.13416472491737436, 0.230209883732924, -0.12268726842864833, 0.03790812971180022, -0.06892709071995105, -0.017474906022821864, 0.14048638492337198},
{-0.12912907880151475, -0.016800668104692624, -0.1653557803206874, 0.0446767932409452, -0.016292597547924274, 0.14005932115608447, -0.06269380003731698, -0.17458787340965062, 0.11484273225127883, 0.08849351962640613, 0.028370972351077748, -0.008654596819614377, 0.1727036270538433, -0.0962121978925349, 0.07941516091257632, 0.16820683314806503, -0.08195734321395218, 0.09250888142795669, 0.1196359266722544, 0.04189654277066318, -0.09004174417778046, 0.2161718222732692, -0.01888463232069887, -0.0644685104962398, -0.04581727173030268, 0.037590001049910254, -0.15149787673356532, -0.0019206602976632751, 0.04484894363503353, 0.23973692705106356, 0.19734041984474704, 0.019522040160760035, 0.12969256686025343, -0.04167685742067612, 0.06428521723578773, 0.2022861079408026, 0.09927396786776117, 0.15715283251193315, -0.020909114256596542, 0.05458549128094309, -0.04296133153358397, 0.1869060158131167, -0.07060616699425257, 0.14886898387744008, 0.13488693940415275, 0.14090019622238448, -0.004994487863465547, 0.11939760565693187, -0.15022877673342205, 0.2841690260479158, 0.07715927691646093, -0.03462429281780156, 0.07715452705881021, 0.022595083956364986, 0.025065685620574433, 0.0621006268108003, 0.11416747831516491, 0.166345159005485, -0.04960229797133044, -0.1952857507262395},
{0.17822154612260804, -0.05816345267899386, -0.027272625796183718, -0.04497583573174194, -0.078450464970728, 0.06892771112789924, 0.042713872140466395, 0.0776417989952154, 0.11484757226499075, -0.021913568249639487, 0.12211926751251682, 0.10432772552055866, 0.020272551577561162, 0.07221510047081665, 0.06682330444423508, 0.03801045362631719, 0.1195035130862828, -0.02419428137505648, 0.07885485506540368, -0.173538897845962, 0.08396756823392335, 0.16593787025218326, 0.08290286170748033, 0.0823275590482201, -0.03298964532541713, -0.042426242802316494, -0.06771170226163518, 0.06788180149069364, -0.15012696511423432, -0.14513389018344897, -0.10363435090513137, -0.1644697618547595, 0.05982972559897099, 0.059510805349518095, 0.07466057819510778, -0.08905064469358126, -0.10282225072684868, 0.04186380237880549, -0.08948918955311988, 0.013794759149980722, -0.10637994124307111, -0.2597957173524185, -0.038648123711278355, 0.14482847835089907, -0.1780774090650551, -0.15942798611269055, -0.1873417045112979, -0.12784621496310547, 0.1732628957386192, -0.03901627204292983, 0.07503615033359877, -0.18706724097509997, 0.02726101259510612, -0.08666573704078057, -0.012250076394161919, 0.07475003907351913, 0.06076066233177685, -0.18232878020168974, 0.24160848834478982, 0.07226811308140467},
{-0.20558169740206134, -0.08254128738303587, -0.0783430545319596, 0.07810162123755918, 0.06861563995854214, 0.19306471434471512, -0.14983562264861355, -0.05569263677030591, -0.12932551197770484, -0.12782315085346269, -0.18949441656832172, 0.19666806872929288, -0.10792131179121196, -0.0035201296969905463, -0.06279572151880271, -0.0825972027654237, -0.18762772460495772, 0.024457419031724926, -0.1539439533759626, 0.00741910077335709, -0.04685274975684222, -0.07464274638407492, -0.07350186629486019, -0.14946474261245857, 0.21196143351613597, 0.2065389974020128, 0.0938744895841839, -0.14165059806056018, 0.021470573204860746, -0.05045170632305929, 0.11799154077725342, 0.15058844876783378, 0.010740383116853098, 0.11919641838243565, -0.12014944431658921, 0.07828018471316567, 0.40544648910310327, 0.06429833462914013, -0.17519897035903922, 0.006949083541580909, 0.12390771221848253, 0.09105348744533912, 0.007836186609585764, 0.23843347546178048, -0.06121791261021532, 0.03356756618681912, 0.21846203332265093, 0.09030963692302853, -0.09298982802276781, 0.15912372040835857, -0.2369369106325687, -0.019587104142919212, 0.058496880057215025, 0.23423996467887043, -0.10586000916697702, -0.06802909557038986, -0.17044049086930552, 0.08917729225610305, 0.10725406870424986, -0.003595146568033008},
{0.16026615691412904, -0.13612603159647993, -0.17429167233015896, -0.030968529485104666, -0.030780196035365952, 0.011485215333747661, 0.06129784027741937, 0.17432221928102698, -0.05967201024727583, -0.16480201369704264, 0.12478233042625397, -0.13568233436703023, 0.212984438797709, 0.004600623268370563, 0.09943442324074016, -0.0646268803166515, -0.14295105181967702, 0.006588888833201705, 0.06718156697187128, -0.10348905381700998, -0.10864800114296283, 0.18644630682781624, 0.1603759159557968, -0.07314471274238839, 0.006240548350523672, -0.029629518065252786, -0.14910992062092415, -0.10475395506333895, 0.09314676235384449, -0.054315278175436466, -0.10179961016384982, -0.046990205116821504, -0.09479992434228905, -0.0925934901562224, -0.25315731212691117, -0.15711586390075588, 0.23891546985461942, 0.07431738159144384, -0.13042408866364727, 0.041151646274618925, -0.2845491858439283, 0.037252011503748385, -0.19180766416676714, 0.03791344984329511, 0.09784467715949112, 0.2557992334292091, -0.21000041374455428, 0.046709981045068204, 0.10940215632161679, 0.03720215085802741, 0.08374399735049211, 0.20214607672735005, -0.2917884496638217, 0.2748661619243594, -0.08115096347167051, -0.017831517966227773, -0.05579994720245909, 0.12280397802569674, -0.09243987182474979, -0.08472684837409117},
{-0.30131455734923285, -0.07805555133239561, -0.031184988873257064, -0.06312524947952816, -0.08220224878660792, -0.09113456290372615, -0.20832176310080072, 0.0508698616473047, 0.15579210546027064, 0.06496352031761252, -0.14498976401751495, 0.11810848026775268, 0.12544673061275227, -0.15554229278617368, -0.10020474744298134, 0.06482424412923644, 0.2749050463312236, -0.23311447391126186, 0.33001802690885096, -0.16673611565434365, -0.17450724645793755, -0.051759383287878886, 0.1055019995649902, 0.008909680961328008, 0.2740017373044821, -0.22578641209936287, 0.0869155579460063, 0.19509527513907382, 0.0032844642989549627, 0.04156949527122826, 0.11329222744119172, 0.07501597956297107, -0.14957432151085429, 0.010697228376525137, -0.0856663200214323, 0.022474247695617587, 0.14018187352353437, -0.08282498323474928, 0.022291651387226094, -0.07059567716441635, 0.04830800366100909, 0.09089992169729968, 0.14605812463737042, -0.010040235112406959, -0.03632044192713882, -0.09903746006433539, 0.012638311268558196, -0.0913251108631163, 0.03017677501213082, 0.11925569843149433, -0.03697641824725869, 0.12593164052857062, 0.0539043000301876, 0.052113316061311456, 0.20906457017976704, -0.08861934650713255, -0.07374455487029587, -0.14967664711391143, -0.17344376792120966, 0.12574553189054136},
{0.09889940153961717, -0.1730111300141368, 0.029821819770842944, -0.056909649578978386, 0.2240652878834006, 0.015368060127270896, 0.1080059013647873, 0.04533220726978838, 0.10249422925742134, -0.04070670041753312, 0.17566609407939549, 0.017824362226974148, 0.013931634031033044, 0.05786899252768295, -0.1492978773661169, 0.02888835836566106, 0.05045721862220343, -0.10997511517446229, 0.22526048548328195, -0.042709934147380904, -0.11525474270864774, -0.15105882136546614, 0.16695799581672952, 0.025684441766977758, 0.0009048877642740891, 0.15435792024774714, -0.10786598116690062, -0.11438509782939908, -0.23480326817823988, -0.25439138376675263, 0.062247828028588345, -0.060413999498790096, -0.08215876543006595, 0.031094057707652657, -0.07003292294011372, -0.3082973386240561, -0.07782230269169814, 0.25239785069674264, -0.037872110364941265, -0.09011680773245143, -0.005122849071787389, 0.037761542039231065, -0.07021463188967632, 0.3141217304985083, -0.12907451017250543, -0.05783771944117855, -0.24783216811282233, 0.06402693911102461, 0.13741840438370298, 0.10408137128419041, 0.002905196051504155, 0.04578803389969954, 0.0014126375908820375, 0.11450638612420562, -0.17157959255402921, 0.09643962843870171, -0.006330818181087407, 0.10448267684598922, 0.1992420791217781, 0.25749011930310894},
{0.013714702437672302, 0.0722322878330749, 0.005670338177310071, -0.22161563914815255, 0.24582698638360187, 0.11644165415417386, -0.08681837217052871, 0.07939850752818965, -0.2120784976806851, 0.19407454878527905, 0.17384816713677678, -0.08055980195401571, -0.17027116768242498, -0.05997054104292608, -0.09965122857584129, 0.27508689720149515, -0.08423664360115857, 0.016722875654943528, -0.05257117095651177, -0.02803883475962734, 0.16607223873220806, 0.007215600424140169, -0.16875171188617746, -0.1165456193387201, 0.022644274771243898, 0.023498339070086846, -0.09262780255901366, -0.1180421118145879, 0.10103146842648505, -0.005454825986671891, 0.033766596742775885, 0.06260457587217846, -0.2390190099720461, -0.16787723690196843, -0.19199903608282123, 0.11129209493521273, -0.1302751372209769, 0.07924987936496354, -0.14911465626798223, -0.17837897019095797, -0.027175776535658152, 0.04563310234046787, 0.02450759732849874, -0.10852231902534455, 0.04026316269692877, -0.1325933881709949, -0.07828960016170833, 0.08943088222086895, -0.19571268995650065, 0.17623799015891994, 0.07281090422814808, -0.06880245560523927, -0.14060903556946586, 0.12081056374034317, 0.2588129365722377, 0.5769086130664207, 0.12599337468754235, -0.10020177005961821, 0.03719267158589015, 0.0116540754421371},
{0.03954273909476771, 0.058016259578482124, -0.23382963825691042, 0.07996954073223864, 0.03575261179177958, 0.17560803891983606, -0.008921833533670832, -0.002546421379377555, 0.10643949937564408, -0.1303175270683413, -0.1394243661839838, 0.001405783115603271, 0.14592450220889333, 0.19600540245893072, -0.16304016352991796, -0.22787324096234485, -0.061602726395297465, 0.03625041589076761, -0.07653004141214385, -0.07180601605030273, -0.1701557430064421, 0.19003386396666241, 0.17025635450713936, 0.023264875430737388, 0.06055731785570981, -0.10764640125958078, 0.03722220674913959, -0.004230031185243029, -0.12033081918803126, 0.00820250707857867, 0.018674710817711306, -0.13015832082528575, 0.06199980268318508, -0.14314252155373372, -0.02137779366149373, 0.0525679513476305, 0.14465789766352363, 0.14892696514200948, 0.008515178647312096, 0.1314325673915805, -0.15609599180685765, -0.14517225143259047, -0.07084180244293363, 0.23319305226957, 0.08308303718103577, -0.14587734993920312, -0.05930131821196178, 0.14945904600266546, -0.04601517458445979, -0.044077066340349365, 0.11613980462565687, -0.1548857277175389, 0.1658235571134988, 0.188197429207519, -0.13058625389432765, 0.03677389611147809, -0.1277248485422993, 0.12465393099967832, -0.09558364793287201, -0.0965869882253266},
{-0.15363216349512795, 0.17174219559235757, 0.08348566283223116, 0.042336992287414194, -0.08558848234081552, -0.24585934256496614, -0.020360070837835056, 0.008119273605763005, 0.11730987000470365, -0.1387370379711546, -0.03738671469029414, -0.01888610732720607, -0.08544665140075276, -0.04055514677395065, -0.0401717918069769, -0.1385760226340567, -0.005398042575655761, -0.12735840925955133, -0.23466653848444266, -0.04058354746604992, -0.03659578641575445, -0.06437941708896282, 0.18639545739314323, 0.22724052723175572, -0.07153565467028997, 0.020101524995074282, -0.1364497093908135, -0.043206554621687966, 0.20921319466033042, -0.043155676704741366, 0.004901701659296246, -0.10916074880914789, -0.17932644975777648, 0.012736365277520775, 0.2911898737444281, 0.1192527719099903, -0.009744779453868037, 0.0722890907785139, -0.09436190672207663, 0.09680775464021461, 0.0694665668721539, 0.1344080752350402, 0.05173751683213026, 0.19197595369477122, -0.07333569340534768, 0.11335650300358797, -0.06697582242346926, -0.008324829171454827, 0.01423857320072092, 0.012363370151298896, -0.0898332596083105, -0.047029358948339046, -0.17123323207607727, 0.00766821358243638, -0.11959826429084089, 0.03968775538438114, -0.037043563057130136, -0.00436124819677416, -0.310047564651974, 0.0058931787333628555},
{-0.03884672966427248, 0.4298047621618738, -0.12356385713065586, -0.05003513146567012, 0.21738585962620427, -0.21765147348592953, -0.2586482794722929, 0.34441056314484225, -0.05566268846888591, -0.032956355086541524, 0.1754109568576546, -0.0012184793755162465, -0.30671985410600927, 0.22912987021646813, 0.011173502099430981, -0.20019289646492425, 0.1761549732443129, 0.10953670646054585, -0.0690856298815397, 0.23023709852092744, -0.11339535635225678, -0.12137836284892167, 0.13338668534420606, -0.01912919672312809, 0.05803588978183262, 0.030509724651976825, -0.23406814248763358, -0.10443637872032442, 0.10153007109151967, 0.018497091349434773, 0.05200730083622478, 0.14319301168275006, -0.11788274529403457, 0.03540057711407679, -0.08693370986236086, 0.0028197952342548893, 0.19341845345820893, -0.12779063787662662, -0.05205231466012721, -0.014272422108795682, -0.08155848308608558, -0.10089797956788288, 0.42298930597206474, -0.18174433318330685, -0.026407511842171914, -0.05094211005067487, -0.05283921207483104, -0.06201104241718546, 0.2052721907175945, 0.06923176888312395, -0.11550184067189677, 0.15493534445144652, 0.026634641901206638, 8.186201644302702e-05, -0.02240867055798835, -0.21684771348179052, 0.0637377196649093, -0.0362733829835926, -0.07951400471101727, -0.11547190526345057},
{0.1466367056325401, 0.23356749631845777, -0.1746347910501856, -0.10922586556624862, 0.031052117325380636, 0.04627816363589689, -0.07415811304766684, 0.21473211170299475, -0.03754595241161312, -0.03341412582797903, 0.003887817528879025, -0.04378425833653797, -0.17398673518635033, 0.010401822891987478, -0.20830139363769737, 0.06564271009734167, 0.13561658180144023, -0.1567311090246613, -0.11153134822173194, 0.06858656707989157, -0.13569841267583688, -0.07248160979684805, 0.048060514349698755, 0.03542191844235058, -0.03484388735366105, -0.2822112673482805, -0.07069503190444165, 0.0645482227589054, -0.07891171757243122, 0.24868269000757445, 0.014020656253893671, 0.03111427900038022, 0.0027435501016498894, -0.017549875158659765, -0.020227639254189, -0.021342065668844033, -0.07471912334832645, -0.144089115760235, -0.058142715275852914, 0.02799929207980521, 0.09160404908631083, 0.08337826611855491, -0.2048561987899087, 0.01628104008780645, -0.08911971394289685, 0.11846625148022095, 0.16473626082113763, 0.021917082435194118, -0.024800550962167493, -0.029413723593655707, -0.33319767668264977, -0.019048669164092726, -0.06844049684936315, 0.022205340705537282, -0.15634752553586337, 0.19675675801154632, 0.03445105622131206, -0.01962454082175541, -0.05698028695166848, 0.2449556872784963},
{-0.0382038726941411, -0.17609783987573382, 0.14790193980233013, 0.11163586904408175, 0.006102488925089416, 0.1772243874416236, -0.062302180704544435, 0.26332590042632803, 0.0140695601208434, 0.1738431583861816, 0.04066309129958973, 0.1124857429187542, 0.0016606978437445547, 0.24185735878248724, -0.10591823510761425, 0.03060428251875306, -0.039486077929415546, 0.010324691232123935, -0.003922986259081845, 0.23545472736958395, 0.07557314167971034, 0.04195357891890538, -0.15476279036487023, 0.03209460387705708, -0.14784977592852855, -0.0352956608265784, -0.10804839192104518, -0.039155075801854684, -0.09492090869880562, 0.186557070948197, -0.047121588265218055, -0.3629399179059862, -0.19825233458228178, -0.07892338144324386, 0.06520781019296948, 0.1790775640646275, 0.2143136011700497, -0.27629141865264184, 0.1509206002378192, -0.14690123227598795, 0.07400154547634934, 0.06253680580009907, 0.15784519299539296, -0.3653290901035535, -0.1496793122147687, 0.023049915918009554, -0.040973005984085945, 0.13926518323341175, 0.2366056912261399, -0.0929091886528968, -0.07573294221078829, -0.012086470772115035, -0.0546539708170547, 0.15865444098298578, 0.09418220404776582, 0.14498902671459965, -0.039971603640242825, -0.020664642263307158, 0.08670292002800808, 0.11985700637227976},
{0.0006671607444937109, -0.014992559899647937, -0.02659801279840415, -0.09899229076981172, 0.13726638659909246, 0.1220075137909475, -0.0839194965052808, -0.23128224263285596, -0.1791210551455209, 0.09699250377245126, 0.23259274698261834, 0.05688949657493821, -0.18089815452829086, -0.22770447818254314, -0.1946078257334397, 0.04567785533389283, 0.25449520947173604, 0.154111332397268, -0.24575771422090772, -0.011087319521355039, -0.29088128207692576, 0.031731924672548234, 0.16408793625913826, -0.08479668206238783, -0.29837644316602085, 0.14549072082476439, -0.04200413712129351, 0.07678440404723343, -0.181245026680816, -0.04266357368117661, -0.06923810881439146, 0.11138146695504535, -0.046908534982993536, 0.09215996332675946, -0.20465464563240288, -0.20120214074991166, 0.11459164650843418, 0.2711397660799661, 0.11288036316938736, 0.04058550505203514, -0.29178734085249025, -0.1190744629035892, 0.09366099963291942, 0.17644258221044848, -0.04957763951773086, -0.14665489949325064, -0.11784990225061691, -0.03839707206256422, 0.2647261031582459, 0.339160148648429, 0.05309980445969322, 0.0733697681115831, -0.26126776248913375, -0.15836107937680513, 0.24736943478617637, 0.013214684019898192, 0.02145229495614107, -0.17725522558901827, 0.032875949612006336, -0.11930478080251752},
{0.03340397952879949, -0.04505474893667795, 0.13857974850317195, -0.09322014256343931, 0.10061537481418326, -0.07525424282208022, 0.053794539828404556, 0.13334069221137285, 0.006250526416598009, -0.2147468347991789, -0.11050809519980807, -0.15448063420171523, -0.006063248536463377, -0.19844122783135135, 0.11197236706648657, 0.09768222773346935, 0.1499143313015566, -0.09809118585927992, 0.01261678348188662, -0.03956383994089159, 0.0028379321093297445, 0.18221558625294368, 0.014244522982843337, -0.05643136288401927, -0.010613735146486598, 0.09500234054878537, -0.1428650106197349, -0.1384606168330213, -0.046471445631689444, -0.12133599281758564, 0.07874535499776414, -0.1215898593493309, 0.014643778866160471, 0.18949239130694753, -0.08308857041002708, -0.12245501556508893, -0.20293653396693895, -0.14036802697818884, -0.055489354793228245, 0.12058054683587763, -0.08263348217700034, 0.16282542287597182, -0.16571721061555394, -0.013139679568582967, -0.12106180995364928, -0.26410796509571205, 0.1407764200548562, 0.1638770545163607, -0.0875695466107467, -0.1789009089493614, 0.04520071577082979, 0.003695074957618443, -0.14695227752141374, -0.08246410171654554, -0.08392949084122328, -0.04040336559713903, -0.23220306458556791, 0.018644839894814535, -0.04265287985136644, -0.011793368105870223},
{0.0417480201258895, 0.2120094494200574, 0.08630882653140529, -0.1346490228085637, -0.003402068722355823, 0.0449810009430375, -0.017752110977230742, 0.13933480126558762, 0.08011288717949708, 0.10325277372842909, 0.1272136487378654, -0.037764181218163724, 0.09913191555999111, -0.11694409429365903, -0.040884063616451374, -0.024946020712719716, 0.08434696321832413, -0.20845766471786026, -0.17373584011245982, 0.06369222803696813, 0.17661305409179914, -0.005516774143363829, 0.1485661684024833, 0.018450043202326977, -0.20324990039460528, 0.10511130370373077, 0.09265186193088436, 0.10042265828497945, 0.16202219977428656, -0.1515256266144568, 0.0027854921370206193, 0.023661662884561892, -0.017186464813387474, -0.0009650672713312643, 0.18416039071416196, -0.023045561460563347, 0.19350661398688757, -0.23751788041418975, -0.11812998995440285, 0.1304140721620882, 0.031940774439647594, 0.043023657498348876, -0.020849614914575623, -0.13909811170304237, -0.2808981129837702, 0.07623562301890813, 0.05499198875480706, 0.01001930516460464, 0.09393532353373144, 0.057991736382550646, -0.052659159469030783, -0.0031015441141553418, -0.07697333522293714, -0.10790851615902558, -0.06988227803041122, 0.04559749276042764, -0.2073647556615493, -0.07349154163844973, 0.08842738932635118, -0.12794239226450835},
{-0.14306844867689072, 0.12484302780103439, -0.08617104690551845, 0.17706088170022913, 0.07601380770112917, -0.11064099025435403, -0.06147696462310914, 0.0038945193406986632, -0.22544881970839373, -0.005159242573214814, -0.03875392274531783, 0.22273490363924803, -0.02127709546479961, -0.20753366815542962, -0.0013670678683569675, 0.0068443176859989425, -0.0487230690868008, 0.028050437374890762, 0.015384857342653541, -0.32179328435993015, -0.016399755287222345, -0.06780284476252807, -0.04143687459286351, 0.22958744504075262, 0.013127997537154287, -0.10011670537501681, 0.1413424366721791, -0.01999228293604145, -0.09184473147185988, 0.18212882989848, -0.024310634427988677, -0.05389583147526327, -0.09619628306029906, -0.19743204683219928, -0.036943997187784586, 0.11741337755327873, 0.04820396490565089, 0.16588469074720855, -0.0809419273647222, -0.040518482983483234, -0.11326629493094081, -0.025319490821508563, 0.10514227695222816, 0.25727087624678047, 0.11062066348595856, 0.04344830981463971, 0.04904447781018435, -0.02152365864164465, 0.04542529527461274, 0.2318884900688478, -0.10334325188293382, 0.1126577594667936, -0.11359000323166064, 0.018749276531906705, 0.11342808915740046, 0.14399082664217547, 0.05838866211648204, -0.02280825587675086, 0.04509859837787894, 0.19658765589662816},
{-0.13122657616392264, -0.09066707341329885, -0.1112826366402112, -0.09717638995672591, -0.259420842105431, 0.22662710043909334, -0.03918823197140029, 0.006828978799035437, -0.08058420701114495, 0.034410532796764495, 0.21987661197603528, 0.06550733611554407, -0.07982051164829258, 0.29205797160466207, -0.1245502138048765, -0.26204886796425036, 0.05993403939137612, -0.11854390141653587, -0.04750912035161817, 0.18347988512810634, 0.1689405815052069, 0.039845894168610396, -0.21205990388493448, -0.08872795640114821, 0.0694274475610645, 0.06212520551188844, -0.037973440853720314, -0.06720407375933495, -0.003935451199250917, 0.05473850033687846, 0.013408222566643414, -0.06618045892993071, -0.18023243208280487, -0.010040771576602317, 0.04680944956059067, -0.027759657387383216, -0.09156811495039263, 0.22679524868438414, 0.06451193246622054, 0.0989749920682883, 0.0031167313032357475, 0.08045493902904208, 0.14605109636710076, -0.031782632435305776, -0.002957692456933162, 0.23012371185274724, -0.05700231713434374, -0.002579022793870829, -0.11031425697907822, -0.03460100065212628, 0.12452354143180246, -0.2360073342892087, -0.05476671795515186, -0.05042825407613875, 0.08468332006181098, 0.12010398207336688, 0.05964100480993272, 0.20189185780725782, 0.17660463802297605, -0.020494305538021864},
{0.2177079361417116, -0.10886733771266788, -0.037776704211845945, -0.13257756734201928, 0.051872704499305824, 0.18287092269219957, 0.19407347151469947, 0.024134254839157324, -0.1128082743021232, 0.0784404115523949, 0.14972247798455446, -0.008134462283349504, 0.13310683652808417, -0.09249703001038623, -0.1786432446249745, 0.07053232798392954, 0.32013324139367694, -0.20610812056176767, 0.0932951273876475, 0.14742436320884264, -0.2792658028519629, -0.04037235646335935, 0.07474755513541181, -0.1719568657513027, -0.01628380740886425, 0.1186788282388358, 0.005066455319433484, 0.004261332231703622, 0.009327543645764547, -0.17429611216331986, 0.006298598954372136, 0.12386892783104887, -0.1875040879934848, -0.00837380128008296, -0.0857626167107407, -0.0020759514947541065, 0.13775418211309162, -0.05267590719631261, -0.038099268589067606, -0.06988390534122828, 0.11207499475078715, 0.09754369573994408, 0.2522021323229641, 0.07188345621212416, 0.12772267639796486, 0.06606584644307337, 0.13009035393973958, -0.15376595197715376, 0.1467005235528012, 0.1411308379836268, 0.06497088562985945, 0.0045758373023375805, 0.09222345886522591, 0.1602747509739435, 0.10396143343511889, 0.14911187045449806, 0.06577604550433873, -0.1262967746096244, 0.2336175927822108, 0.10185175331468381},
{0.17448412951493553, -0.21341925021587257, -0.1063043526382816, 0.24292861430541016, -0.101097417309841, 0.24421845593787922, 0.2605342831250414, -0.0913832159934265, 0.008910632941497737, 0.15484773060513196, 0.08669201412202705, 0.059607799972376564, 0.0983273369901173, 0.23214954651719458, 0.12690439908752862, 0.22099095761933152, -0.028511320072125954, 0.05539404649156443, -0.019219484912657302, 0.20859081229307566, -0.011484190009651759, 0.21069045245600262, 0.058583652021584456, 0.13422048903167433, -0.08082225486850413, 0.23894995868868094, -0.03167700819500241, 0.019895140286387815, 0.06067475441258101, 0.0933027444862242, -0.17741507702845039, 0.34786937687153374, -0.15504059425494435, -0.01460257239775033, 0.02522549625313921, 0.06579696026587009, -0.2101809313761043, 0.10391127142276423, -0.2459436153778807, 0.03070182941901165, -0.059980292575677024, 0.18826348199475731, -0.1879858374744656, 0.09940851740757711, -0.16027710710885276, 0.045422906928713765, -0.009895944024726737, -0.0376300938351793, 0.08141971973505513, -0.36419383646770787, 0.028178805602572757, 0.11955104587985686, 0.02815195564976206, -0.17116744497092803, 0.002230137678593087, -0.27679053280937654, -0.18628396289479449, 0.05305187931088253, -0.00681997357312833, -0.05874370242257381},
{0.025901363708845083, -0.0063087525401554715, -0.15296127940905155, -0.03577435540619191, -0.0715781594558188, 0.005470297801440781, 0.030092937705725332, 0.15264518015972928, 0.07109585515776258, -0.20537513255564196, -0.011418460014279826, 0.12474068154800116, 0.0655605274602775, 0.08934697979686992, 0.21447491012912265, -0.019434779214688294, 0.019326386284281055, -0.028794585217303194, 0.14091389848384298, -0.014106862969701187, -0.04631579561417993, 0.054382239653792915, 0.05696797717481333, 0.07882651634397438, 0.12762970437492913, -0.08065678786438259, 0.1482399418731813, -0.133884538742123, 0.12463810483369071, 0.04537899237674431, 0.09471112933439772, -0.018039088122579896, 0.11259733628529456, 0.1025691343498744, 0.09988228331859862, -0.158663623013426, -0.03366140009748556, 0.1220836386368131, -0.17391718553196345, -0.11690654940164935, 0.14773561675233166, 0.020881009187967675, 0.13282663155460117, 0.35215210013215553, -0.02719578534517044, 0.06999870946382204, 0.11101377456486869, -0.16353312135752385, -0.15623734249672527, 0.1469424520960798, -0.008831584129132968, 0.03734115918678956, -0.09698051647684966, -0.13042363086229458, -0.12178281581575205, -0.2683481987485675, 0.1522848809079846, 0.05747584808534667, -0.10973639770413884, 0.004143267036990306},
{-0.1539703651636572, 0.1537698414059411, 0.07336503736342441, 0.008909603062823079, -0.11376370741977343, -0.17585621605414742, -0.028537291391688317, -0.1496995122156973, -0.19680124769230986, -0.0018916727598857716, -0.03785901437973489, -0.3220118353788807, 0.054640169537026904, -0.08194710738619253, -0.21837341368576219, 0.032172931062676574, -0.1275308398634336, -0.11347546955493203, 0.054411749704179856, -0.13659842849798068, -0.052577664187645194, 0.036460804561283824, -0.05610654415526095, 0.006228063496793724, 0.1138891506109648, -0.3198978824929944, -0.15602041749836434, -0.15507758359732465, 0.061594948559518144, 0.19332777330665982, 0.24371179728926812, -0.004590315161246201, -0.03097298665272795, 0.07303047534172011, -0.016009860879153723, 0.24176396390766228, 0.0008602010902592497, -0.1594976240388999, -0.034737654747955746, 0.09845995114705633, -0.016397782552961555, 0.10721495096932963, 0.11803298181261784, -0.0974950956367265, -0.06826632597255956, 0.03312918893192316, 0.011403483961755896, 0.24907117748503524, 0.19352579582977125, 0.01329299720524671, -0.1338481724232208, -0.08562796417215093, -0.03962783333643976, -0.056141642765485854, 0.1670252622171433, -0.03261422144985485, -0.038768917571403765, -0.08599552281398236, 0.1495207804043801, 0.0827780643584046},
{-0.012729071538098114, 0.16830092798739385, -0.038773680894547136, -0.08142526840211362, 0.08150392914782688, 0.00970845634201617, 0.13322481742639514, -0.02098942871043579, -0.02808319286429753, -0.15635592784792793, 0.13366917558816724, 0.02914795837575216, 0.05640320111530314, 0.16954403021679704, 0.11343569080976006, -0.1141722145393687, 0.07100836746796023, 0.12891510347345142, 0.360031703733167, 0.10226353977759965, 0.17192656829847705, -0.20737476568246715, 0.06194091106809304, 0.0503128623395059, 0.336362142303495, 0.20795935049584505, 0.06513448345214162, 0.04732329617407149, 0.14895409324767428, 0.2349194528770384, 0.20353619985080812, 0.03774531425821863, 0.0006285980793765045, 0.049803775416679366, 0.24498824211611012, 0.24787316560658657, 0.12866709925283681, -0.02237810956892288, -0.0006622313269630125, -0.07743441834467583, -0.09998680454755533, 0.4726581905668704, 0.07833744219208316, -0.021898011441936323, -0.18755595423612287, 0.026818224049480414, -0.11611134386263251, 0.24271444076328746, -0.23749386689092936, -0.22053976824446792, -0.13766872569792685, 0.04278051406295175, 0.0996342146187751, -0.1509920217776462, -0.05780597172508569, -0.06868677527773673, -0.06349828781620385, -0.1452805005031711, -0.28942139692604657, 0.06019061688082684},
{-0.07916699875427614, -0.1578491850732103, 0.07187104776066998, 0.04293534141564409, -0.22964433463800418, -0.1451767151709425, -0.18771801117939757, -0.04757993006915893, 0.01745952136653986, 0.038190138883379895, -0.3536265098446188, -0.02859230729105489, 0.0698849708567047, 0.010626224306134056, 0.031234175858213028, -0.038992978730709636, -0.3180753767124158, 0.22206316865190565, 0.14741688266934744, 0.0811659862257533, -0.09512547070255914, 0.007666151098573363, -0.11514938517483184, 0.11652154825984753, -0.19206181565373875, -0.10876688707253779, -0.08596714500603149, -0.17122910661610885, 0.03178439421708823, 0.10842973461283445, -0.04694305841791989, 0.03371753015674962, -0.21377888285655267, -0.05566748931526695, 0.09233186735754345, 0.15158101539019028, 0.12319546666898526, -0.11505365928490703, -0.0035714978056215667, 0.12377143291251996, 0.1306398518864665, 0.011083760911106286, -0.11428120713198442, -0.08186625141801679, -0.24874643588600967, 0.07298410718082078, 0.14227105732362982, 0.07152512265413141, -0.034070330358593436, 0.11224240534332067, -0.0353035469230868, -0.03479022816280643, -0.024985952606110345, -0.02270151491638817, 0.18029102585955212, -0.02490224194142713, -0.07972059727349404, -0.006722496378106989, 0.11101995492360493, 0.009145184553868715},
{-0.021704433117810326, -0.06671539880862992, -0.06272358406665884, -0.13138948965539876, -0.10126342509574565, 0.01785948859706428, -0.022351123026594893, 0.027892808821243453, -0.03637428896451073, -0.07088671310611562, -0.07540310228995324, -0.0464959120861979, -0.08478900020553697, -0.10546814717670071, 0.08992870685801348, 0.02237621541628338, -0.16333938777304718, 0.10296392528884793, -0.1402365100701092, -0.26266996392566344, 0.073459808025631, 0.06790119302061683, -0.1633093788689405, -0.12347360165867291, -0.007838772507946571, 0.2505129450749764, -0.10154009237112682, 0.07513772330737381, -0.22324567173180201, -0.025679399329211594, 0.11950058748471644, 0.05205838554477896, -0.11598999681514731, 0.22747520643072092, -0.018047454587564255, -0.018228532182609596, 0.024776033476703832, -0.0013739534204595656, -0.16096354679631186, 0.02163895789365597, -0.12781397627631721, -0.03216834800383765, -0.1714173299584719, 0.18844195319719606, 0.09175854109971873, 0.010111430769827135, 0.05983145407409946, -0.006624178960367174, -0.00022862716405898758, 0.05474902838643301, -0.29582949373998785, 0.2803431711051385, 0.03407561885978414, -0.08554379379334766, 0.1006399067956233, -0.21198173162072606, -0.26726923774393097, 0.1917248679113005, -0.011098078527940026, 0.1137686432606245},
{-0.06409531350404649, -0.07328591414512517, 0.12352414837226072, -0.09342817201292611, -0.01100632087492454, 0.2232709081086389, -0.08129208371659163, 0.0512025382065785, -0.052230067995541314, -0.11618207742460666, -0.01321404127672143, 0.12220841992085668, 0.08378933674695993, 0.1613009107936504, 0.04059174831953202, -0.014163146374038938, 0.15018710235975255, -0.06674893951525916, 0.005869060030376609, 0.28884097315924373, -0.06566436711169002, -0.18522466786153122, 0.14655398956502796, -0.10963254537267875, -0.09676644360483282, 0.12272012688346776, 0.06665123534238933, 0.09477674995246547, -0.15538323278530988, 0.02679631667734256, -0.062311874566334975, 0.1404225494373539, -0.013325864877370567, 0.06269973253201647, 0.0459451736914563, -0.07312351802886942, -0.029349167175233584, -0.14256912475327263, -0.04518652972843724, 0.22157309337530404, 0.11807654286008784, -0.016074847109499524, 0.06588874605976847, -0.026442190257923267, 0.09772669525223593, -0.022920957647233817, -0.25204114792620325, -0.032957226223721804, 0.17833995032417596, 0.0005102456734116471, -0.10224049407782806, 0.14690384870033876, -0.0055762122510337065, -0.02975138974336207, -0.0031175964838204345, -0.04555029726648593, 0.13600690776263688, 0.12039856445377595, 0.029598372465818052, -0.19432442213903373},
{-0.17602585041468094, -0.12717133531607797, 0.006307439903079404, 0.03732818373730888, 0.02541367413732592, 0.07874289970459925, 0.025508657058408706, 0.01791031215627104, -0.05656724078065798, -0.006322318347179833, 0.056736519872741815, -0.011071014233028456, -0.05523401594718637, 0.009472481098170069, -0.058371608594109475, -0.019259127206691797, 0.04178553224778584, 0.08105235924089255, 0.06826383657094204, 0.07934551313905763, 0.022061093927588347, -0.025723072366228217, 0.03338247102497795, -0.12045514528424119, 0.14356516402222058, 0.18027925050543622, 0.04147780737011968, -0.08848745350690386, 0.07491172440798446, 0.0684519254934546, 0.11799133343917523, 0.1483906415703131, -0.009537077365453185, -0.034987249402570336, 0.059976325074424804, 0.10790627451846574, 0.08897901913152123, 0.06905558342800565, 0.1283047314214129, -0.2061332400496707, -0.17303785092482235, -0.026227831478812528, -0.00707824659032128, -0.29230761822432416, 0.0425150773533031, -0.1245865683814954, -0.045583971423125855, -0.15957814965021588, 0.17029376273881952, -0.20995961918330136, 0.054245647061430105, -0.07603048324548145, -0.14541531470067093, -0.12002823630619885, -0.18128584228804376, -0.31563857082064223, 0.041948701660275534, -0.22753602275512105, 0.025175377572493926, -0.07839828073992455},
{-0.2055555442838791, -0.1852847719490789, 0.027406485744491713, -0.20289714501277895, 0.04093998266816755, 0.1812681030332958, 0.26324666230411253, -0.04939329540087862, -0.19059016501437667, 0.18813385334504845, -0.1569813572963707, -0.20247425895795515, -0.06828483667600713, -0.11325068893598858, -0.02791370754738397, -0.02790718423876203, 0.2246009125178567, -0.10686615411515743, 0.16953644945155086, -0.10820679864294122, -0.05520697843430419, -0.058787030643486615, 0.21881135489170167, -0.1451973797277171, 0.17809436578766524, -0.1285732430116648, -0.19023204894437695, -0.10524972571219439, -0.1532995076361599, -0.20665743697420888, 0.21370839009881462, 0.07095920103615619, -0.12991413906639554, -0.036957145873919496, 0.046588877644483224, -0.07958809873634606, -0.049533433600170804, -0.027057156423370338, 0.05656971085792615, 0.007418241650718713, -0.11880564144297737, -0.09219438669841087, 0.04581012973818588, -0.11512871938472448, -0.1535872512821126, -0.03358168676901972, 0.05546050611502779, -0.041780051505311944, 0.2757040049513537, 0.18700735541565625, -0.10777703678580539, -0.13691943350269895, 0.020109021249848882, -0.2339532015079154, 0.25824182048070227, 0.13779328622818005, -0.20417950157129153, 0.07210830641643362, 0.12246118281409689, -0.1598890646244303},
{0.09276173698514094, 0.06655785595080001, -0.04013284467609021, -0.014398607786909974, -0.24275027764110083, 0.1175577032904425, 0.08239738461200574, -0.050053264791757, -0.1488108504109941, 0.09230073887041786, -0.1541918957954437, -0.1458875166422467, -0.16021474087566476, 0.21372545721158429, 0.02853407904694091, -0.01936357248320426, 0.07329268528299432, -0.07143118172896534, 0.05328512887286045, 0.0788137199836103, 0.15596574967332819, -0.05891209868319229, 0.03998403176929819, 0.024828994341482617, -0.03833002816777894, -0.034671361634248096, -0.09527463653498697, 0.07759692968107768, -0.03308090815315907, -0.06528378071049615, -0.19560044161121107, 0.09782632745455253, -0.10736567223852683, -0.1672171755721323, 0.07655136632132252, -0.17611541582777201, -0.04510846581462437, 0.09963684016151374, -0.015433343032828652, -0.12791547098489525, 0.25427673432053816, 0.0052012100018277736, 0.2097209083664005, 0.1303121124406593, 0.11827757000535745, -0.09754641180327142, 0.24983313377184424, 0.1695396037046616, -0.11219055281218732, 0.12496147556988157, 0.022078122095620843, -0.04701989312701584, 0.0367395339672828, 0.02091665388671243, -0.04464728592258188, 0.2622457308146682, -0.15062933605187626, 0.05649644675848092, 0.05551973942822171, 0.2867458085350801},
{0.30223828631970856, 0.18070074136057548, -0.1612184846576592, -0.04572829687406039, -0.11986446250261416, -0.03448849782646469, -0.037825631681980616, -0.10902178285412516, 0.07973621863307974, -0.067199763718522, -0.15890580915187535, 0.07463278109125736, 0.24334656019103126, 0.08036348333352077, -0.23413398133353516, -0.0004958804165184982, 0.11852575916033166, 0.022918236998038532, 0.2559580602293633, 0.14332643800344425, -0.07685334076339184, 0.08403197066317375, 0.13367207924643054, -0.00708256875185541, 0.31802403193060247, 0.13284715438439504, -0.02331272898432159, 0.03449566860436227, -0.1152558786560112, 0.33547489536211517, 0.14196751805164554, -0.17157657845158564, -0.014165761382417723, 0.13147647909786733, 0.06548852980404371, 0.10273518748294591, -0.03274259694723996, -0.13994660234890238, 0.026640355890733325, 0.0844988528663643, -0.05274871819751499, 0.12462743205253914, -0.07610989476918271, 0.05745158663774168, -0.02636560207240983, 0.008220659660844223, -0.23985700425056386, -0.05355915133755462, 0.19797519110107292, -0.04362764758479731, -0.017715647958975168, 0.19619407827983507, -0.09845847103714697, 0.05636204937200433, 0.2427232579360401, -0.13344852748927408, -0.05438184143384411, 0.11873071733060814, 0.3300789738579621, -0.3591111721304435},
{0.2632947962600657, -0.056162461380418395, 0.23623748980382475, -0.25080908728258555, 0.03813779104941448, 0.1450028237549465, 0.02357281481351838, 0.13126887385832317, -0.015107915699761013, -0.06269761345397562, -0.012210975365037605, -0.009157364743507366, -0.1127131436923652, 0.10012557407020818, -0.1344229880780992, -0.0808501688967072, 0.1349934882431787, 0.13237222225085682, 0.007099418677212658, 0.12458874219628077, -0.10902261688131494, 0.15882245130480377, 0.15831315393104356, 0.07772385410775066, -0.010477941556664072, -0.010997388385036019, -0.05577756531823322, 0.23312736895189495, 0.12918020446358783, -0.028234600637795666, -0.09163010635556451, -0.1258841137281057, -0.1580877920432799, 0.2713964393481517, 0.01757731049808407, 0.04248393876347293, -0.10979499702419944, -0.014955251411188097, -0.18584785284294536, 0.10830617388644082, 0.0800564738108078, 0.00841255659877479, -0.08660204244073902, -0.11672130225501884, -0.17990478948781657, 0.1126532209622707, 0.04637739372351315, -0.042977175819901216, -0.172346520759016, -0.013553552408458491, -0.15778164662433242, 0.08616870579428566, -0.06353677237796283, 0.15915770009268204, -0.10419756031491262, 0.04159776469296804, -0.2004766320347078, 0.03639620818263409, 0.232094473383996, 0.05786166119989135},
{-0.09966081500935521, -0.22813520345685875, -0.08153642948365583, 0.07145425512505862, -0.17651046798286754, 0.19944971277719747, -0.08418073481694732, -0.12716554355269405, 0.06344814607406796, -0.14716269823840014, -0.14480076861484145, 0.24040134011236727, 0.06821260509531017, -0.2177303805620574, -0.14028500828307083, -0.017655125766639083, -0.02144473075743392, 0.0009529726950757583, -0.1538472655554159, -0.2029755588038618, -0.28424248812126607, -0.0008162893423736472, -0.01696012468745632, -0.0018313340782854502, -0.1429791884994243, 0.0660875712662223, -0.01350912496482378, 0.18482368020329196, 0.17172857692163282, 0.1751739758465843, -0.1481660641841934, 0.1882208673640774, -0.1269974678053308, 0.14558019776024936, 0.07706632617647008, 0.06202161143437371, -0.10387959243608894, 0.2313651966183158, 0.11976927373293798, -0.09242434952319291, 0.1672426345441417, 0.1982792037568633, -0.20361913028043427, 0.10387699056274706, -0.12235706073514292, 0.0080231058454915, -0.03834906982356735, 0.19902700602851187, 0.006488219923184416, 0.12945093635919314, -0.0026120601353109563, 0.014621328113218469, 0.015688909845793544, 0.035492339287804264, 0.10522760893339667, -0.2735521999615189, -0.05094347867535642, 0.043516848038551964, -0.049104999424205625, 0.03262537635906262},
{-0.19642722152099146, 0.018377880981533742, -0.10865702051656707, 0.1769358956603715, -0.0033730715800478757, -0.10328228661356496, -0.1443719797344641, 0.02138926056521841, -0.012576910012623886, 0.18579571242846693, -0.025439710651519478, 0.02139278222981979, -0.01736690281618795, 0.018316882823532003, -0.0008032716181881469, 0.04520988922758765, -0.10722832156567277, -0.057934158775450856, -0.18631114873328053, 0.03048446723193652, -0.18746912700153925, 0.13125073301980875, -0.05238524991025121, -0.07974903508634165, -0.17074223936797586, -0.1547260370543661, 0.05122694977368109, 0.15832379265930424, -0.10483055663337065, -0.010073888596599525, 0.08400808323511301, 0.10244139776674663, 0.15486761765028836, 0.1735706569346492, -0.007264207667312975, -0.10487059522235764, -0.17382584414013413, 0.13813132264783937, -0.11707222456748817, -0.05076068778222099, 0.0920412311529164, -0.05427708668294841, 0.08685978020112547, 0.14590396209058312, 0.0835688073355809, 0.022713181077724874, -0.025974825395237537, -0.016736590916351338, -0.029749047545632627, 0.12311899764531017, 0.16718554944412856, -0.07416960947722608, 0.011112854894482039, 0.1013455386403731, 0.2087065617821225, 0.22781479718018657, 0.1465917372290108, -0.08739466126967063, 0.047262863675483074, -0.02705847820957428},
{0.11405562416249479, -0.15392089517006113, 0.0033291656820713996, 0.03153090177662942, 0.03551972607617338, -0.06575946781747026, -0.1263856286548505, 0.1266405993440851, 0.004030328727724084, -0.12886539479737805, -0.13967934765852372, -0.06256151784136188, -0.01725663020891661, 0.02064520036326401, -0.1127615144800482, -0.14345051176759868, 0.21627967084395677, -0.030671428096366044, -0.022141689166500157, 0.15795800874409183, -0.09404348143548986, -0.09868060789582614, -0.17157108379999683, -0.16706709816367757, -0.04205805028660924, 0.1133093915439354, 0.15700662557183057, 0.13263824331799345, 0.22790652030443836, 0.08691967239731521, -0.15818219428027433, -0.014607393480881574, -0.007947333108379013, 0.19344691440976555, 0.13543777405498988, 0.06899419916848643, -0.03720338114710501, 0.11714482834906735, 0.12644135026789335, -0.06119395634435808, -0.006051426738717067, 0.10085783234020772, 0.0991093078577032, -0.023575253387685697, 0.20757962088200688, -0.04394471963007194, 0.10147331573451712, -0.03096072973817219, -0.15724200714531564, 0.07711352774528776, 0.10158373288264545, 0.13939831869722724, -0.19707679037551853, 0.19512362365707964, -0.10288621198287667, -0.13824823893911878, -0.19601330835126188, 0.005374580185098687, -0.020720377842497834, -0.1144510708743166},
{0.012017728255309465, 0.11264654619700365, -0.09403016281889016, -0.01732445926948013, -0.3315972077689867, -0.3228056914482504, -0.011175079585701492, 0.09412624789543082, -0.11011235056335947, -0.054848740539628064, -0.18058988924286226, -0.095833762533671, -0.20313778077733746, -0.05906323996237988, -0.01735097337653331, 0.0796217862921122, -0.01854817665783788, -0.15377044163791032, -0.12553967550351086, -0.2046086438584138, -0.10474476826187355, 0.1278530069971239, -0.19274078768289635, -0.16693142465509947, -0.05819466348637918, -0.028932217285446912, 0.002008492406038235, -0.11813174977217827, -0.21788694123407287, -0.16084775429077275, 0.0019135573987929945, -0.1522608365230053, 0.06512579066503364, -0.05627581600343219, -0.0007885832511439995, -0.1385835831924522, -0.02120891788879953, -0.0029428059400352863, 0.05199077493119406, -0.021588912497103374, -0.13486092143534778, -0.12505239103117163, -0.06602403583764349, -0.13905337457729894, -0.11412123438144295, -0.17523446589904898, -0.0546083630881008, -0.0006019480367121953, -0.032976734765033995, 0.04413063395318999, 0.07421038365827187, 0.015948103477224734, -0.06710166931009884, -0.21523208168833416, 0.09187306414112582, -0.14074118776231864, -0.26913778382960374, -0.011839341694410685, 0.22253195714717144, -0.03533597547904876},
{-0.12418416605297293, 0.23159560560971762, 0.12179095556807323, 0.015464661595725647, -0.09458039831302668, 0.11926288400810141, -0.15606195797311007, 0.0035096238340740094, -0.2446660274802575, -0.11057882387349971, 0.13076679309315956, 0.01228229215423677, 0.1735622371818248, -0.1230031505056078, 0.13927399702362764, 0.07638759014700014, 0.005297097360870966, 0.0379116648031934, -0.09679482040039128, -0.1318408458682984, 0.0719284457390298, 0.029397919269626042, 0.0972672415833026, 0.08360054093877, -0.02565788043708544, 0.01351782373397808, -0.13271817621869128, -0.023457110548653466, 0.03151287999482404, -0.0085868859969389, -0.13672364412155658, -0.031304654776374355, -0.026937811907325165, -0.04421532803841341, -0.007122667728670287, -0.00213442263678412, -0.06449895046732085, 0.035873038354720846, 0.010697463598142089, -0.02155484536249378, 0.05935696601370733, 0.04380721023824533, 0.15043610282714384, -0.15154028927437777, 0.10237858263621072, -0.1357810601890904, 0.16364403550141993, 0.13320999293791153, 0.24623658301860335, -0.21138259798424214, 0.07237948899578826, 0.04367523385315157, 0.12138770693267738, 0.10656374217581473, 0.035555620237552245, -0.225891395028613, 0.0006593509053318045, 0.18819214544281265, 0.09219324748219473, 0.0048525219231553935},
{0.1687996035998262, -0.11708184664997798, 0.10487173994909699, 0.10727017704448158, 0.0853653704939612, 0.061809844811181396, 0.0829361894512924, 0.04772860960204741, 0.11768296190881744, 0.05293725221807463, 0.03440408741307568, 0.03402038849974909, 0.2066675196232742, 0.011664763229804236, -0.1179865675868618, -0.24581856408216102, -0.010972034808770714, 0.17998961332097105, 0.15148703441935493, 0.0688419094080592, 0.03133132322678625, 0.09686928780249802, 0.05079297668613179, -0.19178257546331517, 0.01886363616545826, 0.1956935520052121, -0.05406313356237112, -0.2086050311942184, 0.1517627369368111, -0.03975096538180438, 0.3502608745622379, 0.2559831141053859, -0.017573537329701506, -0.08271015467174436, 0.08047154130727294, 0.032214821024427256, 0.17591717010456126, 0.33309898502516927, -0.15860274277300263, 0.1313261872103328, -0.06607039705223577, -0.06913169901427886, -0.09879310847974837, -0.04747772313145537, 0.11950070195226015, -0.007236717351487421, 0.03279788220406514, 0.005286033826531575, 0.21414317781263745, -0.03458286721118655, 0.01685052780942108, -0.21920096854144913, -0.053964768000546545, 0.37328521201689546, -0.18806135270236152, -0.24727404449863838, 0.054833191474221984, -0.13449016594962626, -0.1835942370249566, 0.011320335479136898},
{0.04541005981008555, -0.2415277265286125, -0.00926312919868968, -0.2575250580446818, -0.14666077267472322, -0.1861928905412458, 0.030911085162765597, -0.039633197782756084, -0.12812638838009924, -0.05017956131595276, 0.066154991877587, 0.11214926443799449, -0.06195679857228719, 0.08106703800837389, -0.01684365804009783, 0.03220489558741497, 0.07741631118461893, 0.1682588389169752, -0.06534382839243735, 0.1242148376770449, 0.05940731418509217, 0.056207352387597415, 0.10116784502325905, -0.1614155964245208, 0.12570897065204623, -0.020399907093805084, 0.11710277471837993, -0.11222487196836738, 0.13130492006808797, 0.08597461692230526, 0.0928925454746229, -0.4597977229525559, 0.024508953935198093, 0.16767824963406708, -0.23819383562350827, -0.17111488872110894, -0.035523207831212864, 0.13538589909391147, -0.006477035640284014, -0.12122483472498473, -0.12145704345073272, -0.1831634321049704, 0.07709917207028485, 0.26582597263662555, -0.13432842392149744, -0.022417956010876903, 0.1232260362947627, 0.009169913343832993, -0.16776727269522765, 0.051532075329934784, -0.08621305325994374, 0.056803143390006285, -0.013738701314223237, 0.054174889551328154, -0.14332026222619818, -0.004202136102316187, -0.007877620123794919, -0.012577127985471802, -0.1414186421584436, -0.16825628604233642},
{0.2619493665717007, -0.0682735413663832, -0.07348066189053683, -0.10220898890149795, -0.043750143106064975, 0.010560259543552471, 0.10010324637948935, -0.1333741798222355, 0.18861354475335979, -0.009150257727268905, -0.007333922404590303, -0.04589353425316011, 0.11674795311272859, -0.10068497576005238, 0.04030059373201751, -0.04293194419043975, 0.05490657780093481, -0.07872980135144791, -0.035017884860979995, -0.028008944407381577, -0.10212541808509858, -0.10862448824026712, 0.14095553269329952, 0.03209390601293914, 0.03309404108582866, -0.14993662125636523, -0.0221125421309768, -0.24850870398205868, 0.134061702969611, 0.18144197709334287, -0.1621398870837591, 0.001229923155576232, -0.051909669469908534, -0.11704376735842836, 0.16206108523165144, 0.06544254455489637, -0.15436712102351163, -0.04371915330408258, -0.25377003449874924, 0.0033109012582645723, 0.10188360172111277, 0.08393596540952912, -0.2087220939487902, 0.1987265171050375, -0.21901188071804548, 0.0018046278930197745, -0.06455892480550018, 0.10932902410227323, -0.26456192866465816, -0.03306986085427806, -0.1750047337548533, 0.01397109780230408, 0.09697850480756967, 0.0011795075798790402, 0.05957459256039767, -0.028296631602250197, -0.1884613980280362, 0.1909838511175663, -0.03782454219114962, 0.11222727369883462},
{-0.015047591348413866, -0.10548839089320118, -0.22380939800372837, 0.011443144294521796, 0.06523893627748335, -0.026989464765998446, -0.044832683027483486, -0.18061966940076193, -0.31002027533968657, -0.013516065443191633, 0.24994066423682446, -0.06533503347231204, 0.03927443438474931, 0.03846007216886046, -0.07290883481840463, 0.09013082260403533, 0.02093206199459331, 0.1195430631037936, 0.13555649677618192, -0.022985075543189706, -0.046400554673610955, 0.029454864422519978, 0.22789874170692773, 0.1719328816776418, 0.09826430041212504, -0.19279793590895525, -0.10624357076909537, -0.0193680563118661, 0.1187685201192247, 0.14650192925842634, 0.09356178611664805, -0.14711034560132139, 0.07433042199471088, -0.15874933297974578, 0.13216965636950892, 0.18629505679289377, 0.10961840171508462, -0.18955260930616954, -0.28311876042537554, -0.22557353025730295, -0.0017924658786170526, 0.21165290285355515, -0.10286514891297394, 0.01786054314767234, -0.11943542260159455, -0.1901110965270413, -0.03187443049716483, 0.08508929022805176, -0.14608363558335072, 0.018586877902412414, -0.11630077504512482, -0.0756825933016802, 0.010301490747313524, 0.26454526742501727, -0.2136285292418448, 0.07076135094490323, 0.0308191683257711, -0.22709306971331344, 0.16786838916001603, 0.1675931870137624},
{0.24579550190537192, -0.053199939921335156, 0.004622776329836904, 0.08338784011888525, 0.004585079758666808, -0.0760494919404426, 0.2564849867346994, 0.14029582775545435, -0.07214788190824377, -0.10733862169572966, 0.06987622625296255, 0.04736252493050007, 0.10233756321117807, -0.057889638729975226, -0.13754588342174479, 0.005623960995318173, 0.08626738593499715, 0.06286792628804985, -0.04190391668805971, -0.06797774044321914, 0.09863956628541203, 0.07739840343734455, -0.019764553995646444, 0.15440872671540293, -0.04355338346566071, -0.022944518343121854, 0.01762706254448778, 0.0549655552229645, -0.0039370936806701244, -0.07503413813845779, 0.09859013623710337, -0.14271210016173333, -0.10050442934221171, 0.025882367570075837, 0.021065735816223428, -0.14889297419860908, -0.03460866236290756, -0.15956595350046593, 0.08389859133809581, -0.11011417263257091, -0.03045180589531328, -0.059262605422300975, 0.09872579123785415, -0.15782805758716223, 0.20414320230007987, 0.07245167614441679, -0.004733117980064497, -0.19633508644097214, -0.007550641855570003, -0.014618352764337667, 0.036232499252549094, 0.12473016215107094, 0.048230243989010935, 0.002619487850889786, -0.15842954324757477, -0.09856799958301787, -0.07116128749745106, 0.16723362271455217, 0.05862849567267704, -0.1341278858709018},
{0.06096049404430378, 0.0812293042779723, 0.037853905653345316, -0.04239773694969026, 0.14639112353286665, -0.15623179499721004, -0.08786006708961894, -0.008043911066276868, -0.05108272239811207, -0.14498716373524345, 0.014622755657855868, 0.07830066344358086, -0.20932631465719434, -0.10222206853551555, 0.09144813834309418, 0.0881250469194878, -0.14893307963118063, -0.21739378776836887, -0.238745862940806, -0.02303974822702369, -0.09395073586539676, 0.08483065445197868, 0.03811746569401641, 0.14244938820806866, -0.24714029750344388, -0.2705740674865327, 0.21220304423825387, -0.14562176986246292, 0.19446737143397297, 0.1936098078363063, -0.03657961594541315, 0.16324421329551803, -0.06457743344168825, -0.17808310457689613, 0.1577123714778947, 0.031177858888452124, 0.0284066329723912, 0.0050153290509102316, 0.12846763718192544, -0.1222241842492081, -0.028546326842700493, -0.1212857794618759, 0.11767372274675447, 0.04142508778584507, -0.10416082182052384, -0.18492953480003851, -0.040017323143209535, -0.17947506572014507, 0.27568331648464534, -0.052415216277490496, -0.03748848556206904, -0.01549102113520335, -0.057384369769371384, -0.19252921286095545, 0.1344502308366319, -0.12370132602840911, -0.2237854637892807, 0.08556740998641994, -0.25455219241997806, -0.10633290582166806},
{0.11141486366499159, 0.02887731271199098, 0.12635334869824238, -0.13509074205460644, 0.04934661656700449, 0.11023012745493942, 0.22926310725836305, -0.02180538888038537, 0.13243526193379404, 0.038102052533661085, -0.0738741199930293, 0.1679507384104458, 0.07609947124622161, -0.11601482513204663, 0.03725151559764006, -0.17664730460911424, 0.1854078868737134, -0.03029603170909299, -0.08562870151863708, -0.11687394192731791, -0.027375351550023408, -0.0488018659521822, 0.15191424458196437, -0.019206665916220972, -0.1661020617736688, 0.039096560938908106, -0.11336013766284207, -0.08070414453475296, -0.041538368714438396, 0.008410115668364512, -0.08371706741539357, 0.1023172357798365, -0.07924324550513136, -0.1530045331697401, 0.0399872213978862, 0.011400568878692714, -0.07156865483294614, 0.03392864924991314, -0.021574056504608162, 0.019069711894377225, -0.035336580931157026, -0.023344698578471497, -0.20904116377390414, 0.07914186611766827, 0.062098907784419885, -0.01723140692651932, -0.17225421075603578, -0.1223333098935536, -0.1470351503421561, 0.2859713212603114, -0.015599545523386799, 0.13556203955685836, -0.03467756316481088, -0.03047668377383652, 0.024963626178643075, -0.08068681116419607, 0.07255892584549639, -0.0245041230763813, -0.09501012716859522, -0.024273050786797895},
{-0.0517737903496265, -0.04597249052895975, 0.14134240575894558, 0.023749740723077017, 0.03581515914901694, -0.03694968884776599, 0.051800378525964225, 0.1619415035670281, -0.02559794966130764, 0.1621602556808196, 0.010717193250746567, 0.08402700323465127, 0.08354928725332715, 0.16855702462278985, 0.14769791503272758, -0.10283253595419035, 0.12328402273662253, 0.06576510699872104, 0.0531663376672009, -0.07439336477485764, 0.047147994638060055, -0.0037118231102705517, 0.11186847815402491, -0.07072745284335225, -0.2670031428927002, -0.0661350511796349, -0.04044951589977724, 0.022190011575002517, 0.07919735493733462, -0.08794626492607892, -0.06850256094682079, 0.05462620859612141, 0.07186184068653015, 0.01302712771811227, -0.025286683646358683, -0.095878766163724, -0.0025298995245204414, -0.088802418090495, 0.05007911705783678, -0.08480492187449447, 0.12797333471121208, 0.036364812727478414, 0.027301347545141283, -0.0015521407505394013, -0.13080194454800317, 0.008801049880893502, 0.16007498224689454, 0.012473872478012018, 0.03577185475479191, -0.030045530436276714, -0.11535743741907721, 0.14915874383144245, 0.06190009933562001, 0.05426251355591814, -0.015988596007526404, -0.05866592151400361, -0.02777432961931321, 0.3850729890643943, 0.027916037913517898, 0.19766409803668758},
{-0.0011618045380634382, -0.06324252469045494, -0.0765886252859089, -0.02065212297634771, -0.05564620470218474, 0.1878330163668886, -0.05887314647440591, 0.09503257514323682, -0.09341249324464922, 0.0346044337436543, 0.05068690884023385, 0.1539794187197835, -0.03159245267748985, -0.2291411380089687, -0.06438591955547152, 0.15315634491253688, 0.09266970160953579, -0.13858619225297827, 0.027137191508366493, -0.1227420585657937, -0.23211815551638354, 0.25395432778614885, -0.23270714282850966, -0.19559203648725412, -0.2988469915550253, -0.24283866570051008, -0.035866711007867834, 0.012588858746097555, -0.15925525253609202, 0.17324266725085952, -0.03373912639344794, -0.030392296203601156, 0.015061315639346092, -0.20313282371565977, -0.20430387984916815, -0.06111994295996726, 0.023502485242420587, 0.235620572738809, -0.13220713362634756, -0.25234803326046185, -0.13723124953375485, 0.1880849095133067, 0.1138740712084659, 0.015725359391220894, 0.04045477690789951, -0.08168101444557951, -0.004299244768588162, 0.07708801507927367, -0.1325635517345521, 0.21773777855420479, 0.021993587557654744, -0.09922214322720777, 0.08836448737347655, 0.058445704380911026, -0.018849557346501795, -0.06878136208250933, -0.005707391371926735, 0.003063851170646193, 0.12882366480966914, -0.029807258485700205},
{0.26859991388352816, 0.002967812936712408, -0.0584035284626973, -0.00250358656934842, 0.07686247975916606, 0.08909710792223718, 0.012168672619392048, -0.1484556394602014, -0.03373410914763281, -0.06774635260826598, 0.08540512103041836, 0.15951962314318763, 0.1779250795768632, 0.07657610123302969, -0.08299321175773086, 0.07324732618845005, -0.3881589971714862, 0.033818617500374064, -0.022839799398170185, -0.19077749285359133, -0.095776408415478, -0.0779081569512319, -0.3097955304154395, -0.04553635119381429, 0.12114004740224951, -0.2397895948690022, -0.15256042516806206, 0.030878585291918604, 0.04540316505067191, 0.020319906465715847, -0.05042008635955075, -0.020469227588900307, -0.03413068663205794, -0.19357693168581855, -0.05790911214995811, 0.11959702579663509, 0.2699036435204411, -0.03572007046109027, -0.08278604409022149, -0.2236787766694589, 0.08194227941203072, -0.23843539828752464, 0.11517724234178124, 0.086962350142287, -0.09178430442324574, 0.014962657039231343, -0.14610936089999882, -0.15981714141648312, 0.36064930825477304, 0.04102135783379162, -0.07337293916042645, 0.00017980224172719648, -0.17524894413057493, 0.06466733774429743, 0.05522527898611599, 0.04578710298087743, -0.014621935501802942, 0.06615143268141388, -0.10787167282791213, -0.18543001596601053},
{-0.1723706425593532, -0.021116292743530284, 0.010130833321293624, 0.11010522425792414, -0.15134265861731688, 0.14180810590161358, 0.023216688119516615, 0.14827524261328384, 0.07427685760345182, -0.020923134109472608, -0.01372924151135663, 0.10248105292639549, 0.17527534181626708, 0.061908994114271206, -0.08376455332505317, -0.039733170144676803, -0.005051831650332812, -0.10154220386713331, 0.3646442703069857, -0.16668450189992753, -0.06260057882611923, -0.16246579003501507, 0.2003434894222937, 0.055313215508433995, 0.40788302307950525, -0.06753969133980733, -0.02542130003231558, -0.025757887760433997, 0.22749731662030942, -0.020860295608734813, 0.10079673045937508, -0.03840007791851726, -0.15578563175531682, -0.10646933282200076, 0.3193715914124261, -0.02893535679393295, -0.03658923877356455, 0.28516419569502743, -0.1760189365887276, -0.08636732857662366, 0.17643736012229336, -0.02587834634662155, -0.1823529741887365, 0.11580409130746175, -0.10424570574752041, -0.20908334257799463, 0.058733444813312635, 0.003617963985309194, 0.0074858065907440745, -0.10848971254822146, -0.05067420325884554, -0.22512675960501893, 0.10620835702061189, -0.0034267683308697944, -0.02629608726387719, -0.12615759053085523, -0.022892040126514208, 0.09269047922260999, 0.2811919768714898, -0.23760283831682416},
{0.22733625262548712, -0.09108359217204753, -0.046979426339849965, 0.06254175051508372, -0.20118611578064555, -0.024538688092712722, 0.0692428874264903, 0.10963702357434306, -0.17563351595273333, -0.004566183457095374, 0.1277577560550445, 0.06607815649314533, -0.12228705084894421, 0.06444752611365813, 0.12833032553265042, 0.040668080279895026, -0.014901645763956334, -0.21642629880003636, 0.14099456545921576, 0.08525849390859715, -0.08698763969584011, 0.07528485968302617, 0.13870914265724302, 0.182008792474507, -0.1279126989362909, 0.03368607750037198, 0.022415442056869083, 0.03592780725961834, 0.08059626529417965, 0.11104746561187621, -0.23213693466882102, 0.02581682049883578, 0.04807461301282756, 0.23320752734747324, -0.05162425309814339, 0.01979017068702373, -0.1367809201066249, -0.16361412753353302, 0.01887382408870118, 0.2028076110870845, 0.24949596959490297, 0.13932549080754789, -0.28914712884462973, -0.11506828622093171, 0.15829628414873284, -0.032311409699598205, 0.0638406537454458, -0.010296463271752083, -0.1434124799938468, -0.052136493548472426, -0.057245729182316504, 0.20587224584527672, 0.20574989020648768, -0.1610380336989945, -0.3179747469434829, 0.0659017278885469, -0.06023727885824426, -0.2515395335831717, 0.12410645927291844, -0.038593710313561166},
{0.13352262005965626, -0.04933421707259672, -0.029609992033025993, -0.039463112590178914, 0.08623370197909833, 0.031021966385306955, 0.14964923281677536, -0.103100394704049, 0.16543029793723749, 0.05787811472654531, 0.1617998270272047, 0.07806248891390989, -0.1279359992461181, 0.06958723751802241, -0.013791123779625675, 0.17741486884954924, -0.08866296404478582, 0.011610814898570776, 0.20565250606711338, 0.14922426707031516, 0.09007010409635184, 0.12294855176359662, 0.09902895179644351, 0.20479494844125715, -0.055926889910089476, 0.2660016501919162, -0.20748817166592207, -0.08733633498107712, 0.31159347397102943, -0.0484112063677424, -0.15739253161292, 0.12162536747921647, -0.13152917219437774, -0.011150306417707877, 0.06042833305160467, 0.0065095966494354, -0.2168972232544875, 0.012129208357173358, 0.1317526271272978, -0.12825229156473858, -0.06559450991925078, -0.02007033928045099, 0.03993305563089177, 0.1707124147431629, 0.11340765587433778, 0.10881089574163956, 0.17550500710487532, -0.011885880286546103, -0.01593130531783193, 0.15535976093059098, -0.14928271189229325, 0.008746367377181711, -0.22304077542060316, 0.014832554051162072, -0.04314547293056314, 0.03842067681546746, -0.048793448811290024, 0.12952599898099798, 0.1361029885120171, 0.14329237337966028},
{-0.15686831236880175, 0.19818823154588552, -0.19645347070414917, -0.28986501431194744, -0.12291868516565023, 0.24510312975818832, -0.18654811275449498, 0.2723764301597683, -0.20957909074478442, -0.16593358069121728, -0.08381369867174364, 0.03681836232007743, -0.060964956355354594, 0.22390011133089507, -0.14557745734240443, -0.055486101516786034, -0.01939359264385058, 0.05067424406854909, 0.1032389476119516, 0.2525625300316132, 0.1252800793984372, -0.15485904801065067, 0.15138955693805214, 0.1316869587282935, 0.07964353479646855, -0.35039707999737807, 0.09183717020402166, -0.08416518434000604, -0.0036072301815654973, 0.16903072001930702, 0.18306161778535923, -0.19516684401043558, -0.07529575897157435, -0.10498730424266171, 0.07310918686020747, -0.010001654104077488, -0.08455253057061174, -0.15917492158673235, -0.04943466989086339, -0.11721426348698986, 0.0528743764178913, 0.017112228998997024, 0.012269446615785808, -0.0662660090797176, 0.016550712205554236, -0.0836200693018702, 0.05258535930126688, 0.09260286752586708, 0.05253662673271481, -0.00312409881867669, -0.1218869145770519, 0.025442549633496285, 0.024225288150238937, 0.03603055767328334, 0.022079746032853977, 0.07039837913063007, -0.2816825172185949, 0.09631934596383535, 0.03811319735783154, -0.1900654463357354},
{-0.012866550307058551, -0.020079920971141682, 0.00416318615834472, 0.23805529496503283, 0.019206226672779148, -0.030299305426663568, -0.16972389033112442, 0.03148632163348921, -0.047799047688697215, -0.05590764514772684, -0.03890680775255475, 0.08897043778953763, -0.0016872400854386076, 0.03833186139921971, 0.11214347129804804, -0.16339369726729042, 0.1616876868069318, 0.07415440810544979, -0.022337204080777016, 0.11796622261836885, 0.059773843303806556, -0.11073612770370776, 0.0014028019713479153, -0.18709892395575423, 0.10515864850301919, 0.11100122710962214, 0.026133651721018395, -0.19531784770485996, -0.0061965880763435194, 0.08409886443335325, 0.30900031410468726, 0.15455165281269112, -0.09511150426948793, -0.3101608953762704, -0.04966318623530775, -0.003329871567718189, -0.12724813433491095, -0.039191180195073914, -0.16815621439485642, -0.05108919705810338, 0.04262468592737284, -0.2323388836693702, 0.13503761202941061, -0.029003820630302032, -0.33047365107670007, -0.12021727331813375, -0.05795574233893774, 0.1704707314844409, -0.12060369571648842, -0.051232275041761526, -0.11443343556421105, -0.15519072764365405, 0.03179022582675124, -0.035601264811507265, -0.12590055128484637, -0.134147085014171, -0.3100926047033138, -0.10796786769044703, 0.11751358932350403, 0.056451782281105325},
{0.002162241088962253, 0.09436211736143144, -0.024061652755680837, -0.09084997671833199, -0.01833291487527545, -0.15610503734767256, -0.06816875749384685, 0.09034861458817323, -0.19128217276839155, 0.028460363454274638, 0.2608916599447171, -0.26433686156495884, 0.003030938137533577, 0.29328690275187536, -0.07295802119728803, 0.15005490986967546, 0.14732919672213923, 0.1869398785155781, 0.08490778393239545, 0.12489029666990814, -0.056291037890125704, -0.09916853401253865, -0.06514687949664764, 0.1896023202307086, 0.052193188304545765, 0.09702115679264929, 0.06195512856663313, 0.058452730417428156, -0.13991615370556038, 0.035568996233977905, -0.040597281768093074, 0.2487566885404826, 0.03542753570201461, 0.1508119716057634, -0.009781592585398919, -0.11555798821313142, -0.0728196648850942, -0.002403757877020261, -0.0716662377190975, 0.18149349688378516, -0.04893891195921524, -0.11783870564333526, 0.18679955724420072, -0.09272182799007118, 0.014347392832051139, 0.008671897808797301, -0.029675989758574668, -0.31425933319215915, -0.10538507297014214, 0.030125082448967663, -0.1131958556230156, -0.11084917031957843, -0.24893820161929894, 0.014261951871945582, -0.09951691164101927, 0.0027597364385426966, -0.07718636242575427, 0.3105674412150464, 0.0924206430440651, -0.2076802223517672},
{0.047641243045721406, 0.1012954885616166, -0.054354262012445545, 0.1556185204249031, 0.044891554596655586, -0.4120290841433205, 0.04348177337673861, -0.108406998904338, -0.07859045484495375, -0.19187881024970127, -0.01499873943912124, 0.07178276252926165, 0.006540341691107711, -0.07622075512933275, 0.06025667470055546, 0.06352605525039501, 0.07366548660171006, 0.03190576267077658, 0.1837790343687352, -0.11099867041751844, -0.15490759448381247, -0.035200742547786275, -0.06881615895635339, -0.25559421470316496, 0.2096928980433391, -0.04172297319677473, 0.000657468900318764, 0.1687340525568296, -0.2644458629307464, 0.04326399602555425, -0.02791432744956587, -0.21781879833647821, -0.17639207138659943, 0.0037919259911959277, 0.017188373661855254, -0.03507571895736656, 0.11148155440572691, -0.17799134159211352, 0.05198760325804592, -0.11257701325282374, -0.18715251483850273, 0.20961979436525408, -0.06425203453976307, 0.04825819835431433, -0.06387507177789073, 0.002143749892586618, -0.02397140314130007, 0.13536022602374317, 0.22543345704216258, -0.1607353243001971, -0.06148601136475338, -0.09580688032572951, 0.09678583725441979, 0.1851278506608617, 0.06564238309053239, -0.08519959930646318, 0.0915634567108111, -0.18658692502558935, -0.07421077603299818, -0.03775187920912167},
{-0.026544884077573785, -0.0929707714415047, -0.06510074514686016, 0.1888480307755654, -0.12421855849355325, 0.025419196320321715, -0.0024075964207354752, 0.06118569910239806, -0.005423785317387125, -0.1167843172160917, 0.07795455359214064, 0.1995286436905446, -0.0419932294122531, -0.1959849637749237, -0.1433705282608107, 0.2882893345457501, -0.050792532476477664, -0.195758258427383, 0.15825244065668478, 0.12596086211968033, -0.03224164286470977, -0.28709447496870755, 0.030651638981390297, 0.04218075766518514, -0.024801666742498677, -0.10858492516649586, -0.20355049207998055, -0.045359345892458366, -0.19273287610744652, -0.042229823584269896, -0.07765100190000244, 0.10440877255229065, -0.10051462861509118, 0.20473970244223036, 0.17879711829452044, -0.21909870764978828, 0.10256786965795908, -0.052452477603803595, 0.01921889537842758, -0.3033206345896294, 0.08052027043497738, 0.2330241665497612, -0.026583601177158977, 0.02302509975314947, -0.04237794183131376, 0.050158098613380456, -0.02661163300952052, -0.07979314013400264, 0.1397599018060458, -0.030306481583038822, 0.04220671973885117, 0.0062681425302359515, -0.032880258316844165, 0.06422524828437404, -0.011109108464054013, 0.024809704440518242, 0.1208619305816874, 0.00452291798812822, -0.13236427053962355, -0.005900883415958651},
{-0.03673836616720038, -0.0830974208858745, -0.04459869748491963, 0.037823337253713646, -0.09509793259525912, -0.0005386283255340201, -0.14714318574630467, -0.07203465203577089, -0.04773739326440213, 0.1698243479752968, -0.1544411967529916, -0.18000572431471748, -0.06172701649223281, 0.1320042126200767, 0.015811835841648025, 0.10491315595944051, -0.09426643706641348, -0.0036457559132123214, -0.13292556152205753, 0.27911016826676815, -0.07536361212371526, -0.08043392279965192, 0.10812309399744893, -0.1713464017515815, -0.12141195288722217, 0.2010268461719431, -0.016412719711261004, -0.2577188474079729, -0.1610100867132823, 0.08191500115826235, 0.360013348768428, 0.047311447063802074, 0.1314990016268637, -0.03919761892270695, 0.0661217337347448, -0.011660658869805107, 0.15693081610361373, 0.33258627398292334, 0.09620380092264756, -0.16042248493073605, 0.2988330895210825, 0.054984240906953474, -0.005935104251029209, 0.07345670884735098, 0.026792556117416492, 0.04929375037860785, 0.07324651723762149, 0.16815628472174804, 0.22787373534477212, 0.10984765920076675, -0.05270604675075978, -0.02832210337375816, 0.0998703651082795, -0.09722021781017634, 0.23004676964313558, -0.10064066873052858, 0.03316612246774323, 0.18644268982760115, -0.19450274633239004, 0.024410214779648998},
{-0.17698196819670978, 0.13094599182641678, -0.012034717720340557, -0.06225607654998079, 0.09567080772687706, 0.07788523503237119, -0.04744159659247154, 0.027685434140922657, 0.08243359721719745, -0.146885299496616, 0.16507209317049065, 9.395219637958985e-05, 0.0873070949038844, 0.1378944135698473, -0.03793752950882987, 0.04374833692122183, -0.004954413038201124, -0.13884783998168929, 0.2691314303826448, -0.13180046720412847, -0.03240312703418663, 0.021390227715069324, -0.004101377260478604, -0.2512014452883404, 0.38625669301328286, 0.055265202672141606, -0.08935518910536815, -0.16976586448349446, 0.10197693696352238, -0.10117553487423739, 0.13046974700983438, -0.09654202783158046, -0.2253574665236379, -0.025472953869486302, -0.011858674481230248, -0.2077124415342419, -0.01231675202898208, -0.19123025081027153, 0.022891178082200758, 0.05037842223449932, -0.04833504870548565, -0.02691604946033826, -0.14711455473991483, -0.16181643710483068, -0.09155178196547277, 0.012323088169583904, -0.007552658540287408, 0.003571105075719448, 0.08408531379280496, -0.07968406359684409, 0.07916068738777624, 0.03809888794721479, -0.03167144045808951, -0.013719180933828823, 0.23668147464949502, -0.10394891242633235, -0.10491761250245445, 0.037036934852988555, 0.003754903797266142, 0.0724125045623761},
{0.21168583258231052, -0.038208792144431195, 0.10911676636144373, -0.05554122073437842, -0.018600013331005423, 0.02713447155969377, 0.14106238358223305, -0.01276822226522151, 0.03969354841990161, 0.03152962995870804, 0.1359265619399403, 0.011355630786371087, 0.2200692630133544, -0.1080773009203402, 0.046987585075264675, -0.11176192538799226, -0.05352413885739472, 0.13169635306430585, 0.024089620141107812, -0.08722041199761628, -0.06348496059062093, 0.13626091135719315, 0.12055934112148294, -0.09213320815936576, 0.030189634094463492, 0.09944280862544762, 0.08868682469694285, -0.03703180867924083, -0.08583987735405749, -0.044888483822772725, -0.06321873911449424, 0.0178055586943692, -0.011800862109295571, -0.054542919760531716, -0.16275877746008324, 0.16683320322346581, 0.04073466077773597, 0.187145824248367, -0.02223510474715278, -0.10299690168447474, -0.018329340824564392, -0.036309743210693406, 0.09631912823998622, 0.23985602631901015, -0.02082975902791804, -0.043912228124939764, 0.11541009946636395, 0.170663432059515, 0.17534068810967912, -0.031570224460206325, 0.15606681725689392, -0.253216930337542, 0.08458371150832346, -0.15810291000434226, -0.02125358375592229, 0.12597366268473803, -0.1833761864622155, -0.0008568411667395897, -0.05816922243702848, 0.17782603478927533},
{-0.029724150191945402, -0.026995051306974004, -0.1887649861588179, 0.011787550164963025, 0.04741829987209608, -0.1624277551632204, 0.014934199506523829, -0.19347713466965805, 0.036474074073621916, -0.0069282149939723925, -0.04522219766528178, -0.10999280794325632, -0.0032769840345050413, 0.03141280401318934, -0.1951518507359887, 0.20353702055300096, 0.06727140183045892, -0.14171700972384477, -0.11062603879335833, 0.10928475436229552, 0.020447900390162706, 0.013586319679388798, 0.12461459022671909, -0.04114408112609639, -0.07193739371924232, -0.19186361134577146, -0.21734007409885595, 0.06492289222208723, 0.15370136024500206, -0.12395533530385625, -0.06669635109879007, -0.10666420477733722, -0.16600372717697479, 0.23718383397433804, 0.04062367352887734, -0.21340468203766952, -0.30513703049019314, 0.031830823117370684, -0.19408224650677589, -0.11176406001978775, 0.20871153675834717, 0.15632343087000974, -0.15055143931768905, 0.1188788528882008, 0.041435872709541154, 0.007096870269015258, -0.023168106323594326, 0.11730328054437097, -0.18564374843462794, -0.17808313481335297, -0.15823132394010153, -0.21887906541450594, 0.09457159122520792, 0.004266403011134476, -0.20154319938722398, -0.1405964292362153, -0.12973619371033562, 0.05109864808896299, -0.09436092046673872, -0.02723162049914778},
{0.013915497583296195, -0.05155946193154977, -0.06919839476845313, 0.10416467732845495, 0.02109133185131074, 0.0017132874746976375, -0.01627241045320917, -0.007442454627521438, -0.14829096414470805, 0.1056665448878702, 0.14532571978954537, 0.09099044137406087, 0.039313706946692804, 0.10086303038592286, -0.09008251038782705, 0.005300230999642077, 0.10157395413698371, 0.04725396926249081, 0.11519708192771487, -0.04042643721067206, -0.1642450905805163, 0.26851511302373066, -0.03763790517848672, -0.058824982548851594, 0.035833931152953746, -0.14163778528086743, -0.014072693972730626, -0.024486993532813563, 0.0976876658844632, 0.07850815493564199, -0.034055020774953454, -0.07863283731439782, -0.3025316862305929, 0.12659484188617184, 0.020607917514853417, 0.02669400332173119, -0.2016535299577927, -0.22212465837437562, -0.25084068973699575, -0.015806364575220236, -0.13197119609240066, -0.06274107015021226, -0.13449227647921552, -0.06487263309937477, -0.15001131200326476, -0.16082120676384334, -0.024583653512977525, -0.016805517129937265, -0.08351950288834066, -0.02179304286909349, -0.21706311481291815, -0.14981883528799853, -0.2577473999029814, 0.026023600788939512, -0.17581504844873036, 0.0051110773740317104, 0.0908550750880365, -0.3099979942075765, -0.2152686698857359, 0.1984164323563713},
{-0.0010005113662100173, -0.14403912187904358, 0.09880405960731145, 0.059916562915605605, 0.15209816329552947, 0.03941555118744381, -0.08506837413660895, -0.14696998411476522, -0.06981996420811169, -0.15952190211329778, 0.004111300427388879, -0.027686992302793225, -0.1090817439161481, 0.048292018096985856, 0.1541070805749748, 0.09750771246980869, 0.19851157741898742, -0.03153426017409686, 0.15746721806237474, -0.03903945507987738, -0.21004085776101442, 0.06733461106159457, 0.021300635484302364, 0.14109797438263139, 0.09691045117731413, -0.07793451003509715, -0.017179782668668972, -0.04574680406511487, -0.0023017585558317336, 0.21505374616310538, 0.009092780801866587, -0.1919590262199758, 0.13969825517945283, 0.025235957369532144, -0.0986828111161662, -0.033148109959699, 0.08085109443884678, 0.01036730533527367, -0.155324134193713, -0.2326482190106295, 0.13086034815156847, 0.06703491695470461, 0.019885980414571586, -0.0933179983242697, 0.029527309348440438, -0.1071400148523098, 0.18433791043313688, -0.017997900731857815, -0.1397782975875111, -0.0250589788459193, 0.06249496229811978, -0.11126651300393184, 0.17077108430047822, -0.018007541156128015, -0.12353311835801041, 0.0860318187233955, 0.01737229727561196, -0.019546200439266647, 0.053044315026005, 0.011475108181050893},
{0.11027200793596106, 0.11579218583199541, 0.11386869303947682, -0.02553127870624147, -0.04323060304205865, 0.05616190328697037, -0.07851241693659104, 0.05610350543434516, 0.05581901072886344, -0.11243057977619693, 0.04165575621211278, 0.18926970417602001, -0.09938257901048698, -0.1945465910465962, -0.10608069387965509, -0.08041611314928031, 0.04917550350955304, 0.011600051770864057, 0.2597125269647864, 0.11435380580228054, 0.10030590490626501, 0.15037636094704224, -0.05831882917855168, -0.1983225214713331, 0.024853060439661016, -0.08685734944361627, -0.14812540856506984, 0.10957939521519966, 0.07217915409599922, -0.02701109659637677, 0.01996647243170155, 0.10854953695121125, -0.15595221300085846, -0.03234435884463625, 0.15595829113120432, -0.013140926388379348, 0.06298885559421105, -0.13877779879617294, -0.09027079950516251, 0.12952433606818795, -0.08119595466210741, 0.0137676237078457, -0.03270135966869179, 0.1113057328521283, -0.08461645582238163, 0.2772483497423371, 0.17480823542648, 0.2360728750714118, 0.047687960516375236, -0.06696222300107178, -0.18150883404668386, 0.17036126947538374, 0.020148845296356584, 0.2922659034342877, 0.16289751567720206, -0.2786393739912462, 0.0522595578898597, 0.09141726434191441, -0.036745779572757695, 0.12015210304175171},
{0.18650987081675993, -0.1193132255299041, -0.036209981189548435, 0.2046543807176042, -0.10744573091190024, -0.02056323941045516, -0.08124944388771628, 0.1466436945206892, -0.1391342091724687, 0.0026485438063141736, -0.07098722040516374, -0.005473884093481051, -0.016574082669036167, 0.07507713763866546, 0.042348126679931555, -0.16411349538833825, 0.030311540314856403, -0.016938837743761023, -0.10339970712814615, -0.21049882056224167, -0.25587442263135757, 0.0015064660013024125, -0.013837219714572007, -0.22270035334189645, -0.1226155681346715, -0.17691295274904947, -0.24888062481433212, 0.05726091907527181, -0.14832700457066864, -0.015261504833193388, -0.231233994485237, 0.2940873844388134, -0.2217747926234231, -0.05723882027700444, -0.1644754755355597, -0.003837011305757477, 0.1479498194309415, 0.11436237172081179, -0.16062133426050226, -0.06589205338650132, 0.01462646498461487, -0.021581750469613876, -0.07637309520071654, -0.13037573618577197, -0.08459464597276323, -0.18226246108980584, -0.07617544039698922, 0.15778647877670055, -0.10942237999239289, 0.18185407167269377, -0.03414602097134044, -0.116581751628525, -0.21755558287099414, 0.12318165750759426, -0.024735307853667395, 0.14196512062746122, -0.04228244028662172, -0.026694750398344274, 0.08969688264473771, 0.25215664871340865},
{0.16127835460155335, -0.18023084567421843, -0.03366311680709235, 0.06200940864446131, 0.0723219502738855, -0.05847289805898013, -0.13738367043555547, 0.2091159448322579, -0.19233390378032245, 0.03155096760504899, 0.029866672268831773, -0.062947726715693, -0.013583253514153836, 0.09651955849068643, -0.10942994351867665, -0.20508623750151234, 0.2958287463395165, -0.11863327070511723, -0.16844292863977794, -0.0402781202122297, -0.11295135723747611, 0.054825126813499686, 0.17298105727067248, 0.034533100292184433, -0.2665827551818416, 0.09791964816426921, -0.020823295958206065, -0.0692839164400146, 0.19370729547798582, -0.0454250378531584, 0.10519533220334225, 0.18356453788253868, -0.08820102180476637, -0.04517990777669679, 0.120705143526541, 0.045128065352516435, -0.14293270635359115, 0.15339080560381035, -0.0546293916292164, 0.011920980028688428, 0.17949883283207135, -0.08757460401001192, -0.21958664564132277, -0.020182260181292176, -0.175405794339563, -0.1607783130718151, 0.07553821290694047, -0.27730241847412324, -0.18361344696510049, 0.06611572652171657, -0.10609728294089421, 0.04491010734044501, -0.03745114157743683, -0.14305814879918963, 0.026738882407597593, 0.16169180941350708, -0.08552097707212723, -0.13741180203749698, -0.08630369524583889, -0.24689711097737554},
{-0.07794418638302299, -0.12553594458640702, -0.1290904331603709, -0.22867217893577416, -0.03799906475327484, 0.22929536135854753, -0.13898974022079844, 0.09251387552437888, 0.06797135372944776, -0.03734663031847906, -0.1311490489485372, -0.21390205266181014, 0.02564777083372945, -0.0650214894180373, 0.03186878625085693, 0.039887211013179394, -0.13641297879380188, -0.00048295667918480956, -0.1380554799567608, -0.047624536194397556, -0.20882465915117196, 0.14510153952469482, 0.04278794398812938, -0.0654846904306009, 0.05164120449693256, 0.07681248396846545, 0.012887581844085366, -0.07723868105254386, -0.03607337067931256, 0.0740416348249187, 0.037837801081036626, 0.1391147765282402, -0.023598404510358394, -0.07174938465718143, 0.08145968399494709, 0.04996034044314339, -0.12183161857482552, -0.10765087056532167, -0.01122705453631805, 0.015536488760085378, 0.006154471140337455, -0.11627861467022774, 0.1568582869814389, -0.047295838043614695, 0.1587179900766123, -0.14859341453580616, 0.052953540061964316, 0.0878460391275245, -0.05477211784247397, 0.13488514617296055, 0.15944194039120654, -0.10072346383014932, 0.10483690724687612, 0.1506264373228663, 0.1248374047496706, 0.03679738805104856, -0.2156294549456128, -0.0066063116742541604, -0.048960192278154596, 0.05428806384684435},
{0.16148466444305745, 0.06762321833067084, -0.07827943986303734, 0.002319937335184112, 0.11197899166374298, -0.11513593263124415, -0.15673096509464682, 0.1665321309729504, 0.11066409131599426, 0.004860690318728573, -0.1947565467339878, 5.366284265100029e-05, -0.0013241405842388367, -0.10779017376510308, -0.027891149418966955, -0.032151625778013566, 0.14454808203273092, 0.07155403840328989, 0.041743237379893904, -0.25050962476412203, -0.06548708315863519, -0.013893736403485181, -0.062327516335707454, 0.17875308775246904, 0.09073210627103354, 0.1116782008506622, -0.12742799103563382, -0.0013641588709189074, -0.13631401089616685, 0.11297490969307655, 0.19612144990684574, 0.007204009708523786, -0.021476389480125792, 0.02019469913010864, 0.01800623584936379, 0.12481751152723276, 0.27721039835948014, -0.06296981429809345, -0.2493340514515738, -0.06969619497679518, 0.05555143405463337, -0.19712585307494349, 0.3646737422401686, 0.012784347514403079, 0.11053380015838145, 0.08494306306472676, 0.16646584648356383, -0.1645671471267323, 0.18208681729326234, -0.13547082150077025, -0.18467238500308847, -0.028117336754098696, -0.09228391115419216, -0.12518031547644515, 0.03641287032250341, -0.04833696330183306, 0.11756763250890478, 0.2537485406072007, -0.0026115971314597418, 0.019166811309342273},
{0.06561777306252116, -0.012209277590287334, 0.0921967355932001, 0.05042823333297059, -0.06518906426435438, 0.06019635401726457, -0.14841162276663994, -0.07491154399249654, -0.0032385700559391948, 0.016169387938469688, -0.04944085462677548, -0.03735837293173674, 0.030688548310435843, 0.1907438131730104, -0.022186155440712053, 0.037069569526763234, 0.006078247163245637, 0.02326190136664169, -0.03315334796776806, -0.14787423289841528, 0.05590490235262692, 0.1471992679751718, -0.23307029782478386, 0.12471155306448455, -0.13905309433933133, 0.0176783984857245, 0.07311486475298652, -0.038915348715711555, 0.07651129747630622, 0.05195658423872432, -0.012897517280376618, 0.039489708877641416, -0.07958320766398043, -0.0982063481054172, -0.24333458350223436, -0.015255198048879025, -0.14300538207378333, -0.004354427993106609, -0.09342008384360406, 0.08764842742101185, -0.16457484545593654, -0.10011253777940919, -0.00381197848435849, -0.09486816907210906, 0.056856721712729756, -0.1299405587579511, -0.2984660555199293, -0.14664752315814278, -0.02778825023678995, -0.05198217094590605, -0.06303545717820619, 0.07337714227986825, -0.19303978147926393, 0.1509437948219834, 0.10423360537520879, 0.025606647867785153, 0.07976949344525945, 0.07706225128767026, -0.1383843429469261, 0.2180062303258424},
{0.09200160977389041, -0.37564497733205315, 0.1238468782550994, -0.1538964985748328, 0.12794386923191292, 0.09066080826483827, 0.12322920543127838, 0.17049641664656726, -0.12190676519151393, 0.30576404780314953, 0.009767698483192557, 0.312787497204606, 0.30804992888013655, -0.2902413221412579, 0.047475212848919736, -0.10955325557711479, -0.009640000269841804, 0.047508859562119476, -0.03724106822448528, -0.0036936898704689144, -0.015466695557190222, 0.05691879318499914, 0.04828535649576678, 0.11661341185569277, 0.24105150446379212, 0.0021110217676789823, 0.04943003872252683, -0.009091421196388541, -0.05750690948106967, -0.21467062943370308, 0.08156368145557576, -0.11608740372069071, -0.14660324046339177, -0.026883647062524996, -0.0322921600062647, 0.06488395748115955, -0.10685246283641511, 0.05485245625033144, -0.12095396098493227, 0.061320977996190136, -0.0033611274391123604, 0.27603628491051757, 0.2627250967172403, -0.15683640215673064, 0.11954745512215567, -0.0018045437662205625, 0.02004822747970962, 0.21659280239423276, -0.036948312813616595, 0.06773986882548418, 0.1000308139820024, -0.1583062442548577, -0.16273948794938595, -0.004935550801987293, 0.02078314358200902, -0.2003947974308168, -0.15523366726769822, 0.09269099579132713, -0.021998588202258577, -0.1716658134589426},
{-0.1093097506183606, 0.014187219183136094, 0.060406797638441034, -0.21875007207516745, -0.21160807093941036, -0.010189957381018846, -0.168888293205347, -0.10267050753009842, -0.06141190901626868, 0.06659027339270375, -0.134090629831785, 0.08435986793326902, 0.02734507817279383, 0.1396255397831698, 0.04449229538114535, 0.05125405133336739, 0.1538645631760829, 0.09375356489417025, 0.11640913802157977, -0.01910154839945148, -0.11958162041639823, -0.10531891523273637, 0.07403197783304118, 0.06762725221735266, 0.09683266882816959, -0.0890736900150321, 0.0646521220551164, 0.1415894527770787, 0.13432024498749515, 0.006353551750019319, -0.045402328970108416, -0.13371380627391816, 0.053318503473450525, 0.12760443965323828, -0.06815436104415484, 0.009457716683544493, 0.17845598219994904, -0.11739049702234682, -0.15679250802133265, 0.016292086142746933, -0.09118843780784412, -0.11942512406945487, -0.10436104547573602, -0.2454977410276798, -0.13212356080325305, -0.039914149885463025, -0.1519885881452378, -0.08714420207418082, -0.052950252118203395, -0.037295203922077934, 0.023261567135827294, -0.2596912998958139, 0.04920988896992353, -0.043787709609619904, -0.09573565454019929, 0.19656344836899395, 0.06265908538609058, -0.25004225505479405, -0.00026913684986365336, 0.138066897200184},
{0.11379088169724577, -0.09612508748775359, 0.050952391347159356, 0.009361784327629073, 0.20069654690408295, 0.03403794257319853, -0.09824929738114507, -0.04527847849349745, -0.058237538584311715, 0.07031023744636963, 0.0025306837618016423, -0.041327096036053626, -0.22897776462571126, 0.013189380675442371, -0.0614397165921391, 0.09768461757333827, 0.1391843680669722, 0.1880426698223922, -0.0782224084429924, 0.011761036962593292, 0.12617309910930613, 0.16254723039835384, 0.151349302700274, 0.040940892783705524, -0.16585788671397803, 0.015062373673960844, -0.15073987996550794, 0.04622478764819431, 0.0035232726237801318, 0.15948673190234064, -0.18232690895024986, 0.010781830011965017, -0.08262070168485013, 0.15510281446626484, 0.12409691709325138, 0.13798664399548916, -0.13595802262722845, 0.1398169744523774, 0.03352708088002773, 0.13771202889860107, 0.09559703417764003, -0.0037253582276012285, 0.0001583737286296432, -0.0179832960126986, -0.13155354267698982, 0.20630693556401763, -0.049990475451611865, 0.07291986688082892, -0.09146957088724383, 0.18276336484058137, -0.18107191580826243, 0.02505510893040149, 0.08842111574463081, 0.04840979376662288, 0.09856611074492631, 0.23769953063636948, -0.119728665464041, 0.09902289580379274, -0.02960267344135526, 0.09301494402196231},
{0.13135453869350158, 0.01275526228998283, 0.028227179792823118, -0.26151836440933307, -0.060852399278840605, 0.026410531070950243, 0.053232706353119705, 0.0735413004886639, -0.14445227293336405, -0.21572873750972607, 0.11808067805270453, -0.022784725938496963, 0.11029571700083349, -0.13676099603451305, -0.09431876401459578, -0.2285927743017546, 0.13841153073932363, 0.02496386905717726, 0.11809895533827981, -0.18548716390391345, 0.08765713495102674, -0.13789109474794314, 0.18779448045299058, -0.013049846985088804, 0.09408628396961485, -0.05031562377124165, 0.14005306826988298, -0.050607774830183076, 0.12577188005490703, -0.0700788182915123, 0.08562982172899346, -0.1947483268042216, 0.06738864763870309, 0.03750411480596303, 0.08884762448894735, 0.029316832926090768, 0.09719298322112725, 0.12217025838437806, -0.2547523784820319, -0.02042312445234204, 0.046150685291360086, 0.17573623968753443, -0.14202184970446377, 0.09130597709822576, 0.02325109340082852, 0.14167737769429362, -0.05959184290143068, -0.020120167239359773, -0.2543721069197041, 0.0033626800471315086, 0.13084434851059884, 0.03836970589349225, -0.25815151777889456, 0.03686593277205662, -0.2006990273880467, 0.2511693259639613, 0.10991675629112657, -0.03067919769345909, -0.18289768151595087, 0.04036995778802396},
{0.3480243143578959, -0.2869420447110357, -0.05920221447717128, -0.09449528395043603, 0.13569983019630233, 0.22490861953034996, 0.20683194167727548, -0.23790308993988205, -0.16031120953384848, -0.05470743597835145, -0.06498764231175581, 0.03464393908955616, -0.09953483844027852, 0.002624409952278128, -0.004378399068594064, -0.08671705919950434, -0.09337403237078697, 0.03422989934554903, -0.029746015008752864, 0.1149109312916845, -0.024414645416493283, -0.0297602299488864, 0.0969667396131638, 0.01482536664819783, -0.029046561296162683, -0.05297628670593581, -0.1571508278011681, 0.01227093168286848, 0.04009535838432789, -0.09665744406489554, -0.049514352174354584, -0.20132864912063916, 0.06658556427518514, 0.17612680358801241, 0.09762787639176104, 0.09868726606799831, 0.0012056644105520522, -0.05360675629427694, -0.05492043574473971, 0.17094598977400105, 0.1111769976479607, 0.2718929196814474, 0.0004628780375497918, -0.10707123214727446, 0.016130508673989203, -0.0034154547217733013, 0.26826171548594346, 0.1931086669701408, 0.03836166128193396, 0.0569598035224967, -0.04131744910951995, 0.11240727177831174, 0.06676633120494467, 0.1765067222260559, 0.02457699646707168, 0.013556016213632583, -0.21722779980288687, -0.0773906730227137, 0.053000082717299626, 0.1657606997986765},
{0.3450022588680017, -0.023441692266558293, 0.09303645850070434, 0.2278312968222352, -0.17229801275813386, -0.21326000276858711, -0.027447859262713675, -0.29488001887598103, 0.026593060481685596, -0.10395005086787587, -0.0016772442754845775, 0.009961882178964746, -0.0954652832706521, -0.11428530821251273, 0.06682363684041846, -0.1048356254284868, -0.08614874041986388, 0.020357528703557264, 0.12554941660422664, -0.04266593153099126, -0.10290925185759049, 0.07606628911639714, 0.07331518806627173, -0.1238067568848033, -0.04501177521477313, 0.1786406757538414, -0.029944411528689107, -0.11501139020851572, 0.040502653308358484, 0.10642526758969216, 0.24463921994849613, -0.010419829249249, 0.10160330828847819, 0.1065333902720284, 0.15887902250607444, -0.1340967125025851, 0.05816054286712054, 0.1581623770773049, -0.19193402653099265, -0.024825352252664454, 0.011189359752005974, 0.09393249188257159, 0.13651473668346845, -0.027682155074618044, -0.10396997348889832, 0.040656054410481646, -0.16285108872890422, -0.1900909378293402, 0.12431886075499231, -0.20742379793541552, -0.06730423419180985, 0.17119531189143716, -0.006580184010477994, 0.15223933046148516, 0.026196987659079504, -0.10751124285011031, 0.019422662819808534, 0.007974989970317514, -0.11739766794795421, -0.24278059030156537},
